{"learner":{"attributes":{"scikit_learn":"{\"_estimator_type\": \"classifier\"}"},"feature_names":[],"feature_types":[],"gradient_booster":{"model":{"gbtree_model_param":{"num_parallel_tree":"1","num_trees":"300"},"iteration_indptr":[0,3,6,9,12,15,18,21,24,27,30,33,36,39,42,45,48,51,54,57,60,63,66,69,72,75,78,81,84,87,90,93,96,99,102,105,108,111,114,117,120,123,126,129,132,135,138,141,144,147,150,153,156,159,162,165,168,171,174,177,180,183,186,189,192,195,198,201,204,207,210,213,216,219,222,225,228,231,234,237,240,243,246,249,252,255,258,261,264,267,270,273,276,279,282,285,288,291,294,297,300],"tree_info":[0,1,2,0,1,2,0,1,2,0,1,2,0,1,2,0,1,2,0,1,2,0,1,2,0,1,2,0,1,2,0,1,2,0,1,2,0,1,2,0,1,2,0,1,2,0,1,2,0,1,2,0,1,2,0,1,2,0,1,2,0,1,2,0,1,2,0,1,2,0,1,2,0,1,2,0,1,2,0,1,2,0,1,2,0,1,2,0,1,2,0,1,2,0,1,2,0,1,2,0,1,2,0,1,2,0,1,2,0,1,2,0,1,2,0,1,2,0,1,2,0,1,2,0,1,2,0,1,2,0,1,2,0,1,2,0,1,2,0,1,2,0,1,2,0,1,2,0,1,2,0,1,2,0,1,2,0,1,2,0,1,2,0,1,2,0,1,2,0,1,2,0,1,2,0,1,2,0,1,2,0,1,2,0,1,2,0,1,2,0,1,2,0,1,2,0,1,2,0,1,2,0,1,2,0,1,2,0,1,2,0,1,2,0,1,2,0,1,2,0,1,2,0,1,2,0,1,2,0,1,2,0,1,2,0,1,2,0,1,2,0,1,2,0,1,2,0,1,2,0,1,2,0,1,2,0,1,2,0,1,2,0,1,2,0,1,2,0,1,2,0,1,2,0,1,2,0,1,2,0,1,2,0,1,2,0,1,2,0,1,2,0,1,2,0,1,2,0,1,2],"trees":[{"base_weights":[1.9107101E-2,2.845467E-1,-2.957161E-1,4.6261314E-1,1.0870211E-1,-1.4442295E-1,-4.368398E-1,3.4668195E-1,5.449271E-1,3.8990848E-2,1.9704582E-1,-1.8893546E-1,-5.6556586E-2,-3.4519538E-1,-5.364727E-1,2.7058357E-1,5.0953E-1,5.1733905E-1,8.0219936E-1,-8.20743E-3,2.2009708E-1,2.5104013E-1,1.2095598E-1,-2.1630569E-1,-7.103224E-5,2.7305743E-2,-1.24973506E-1,-3.579903E-1,-5.6444697E-2,-5.449955E-1,-3.0098018E-1,2.4131943E-1,5.873828E-1,4.7998127E-1,7.2301805E-1,6.872653E-1,4.9102116E-1,1.00370884E-1,7.680618E-2,-2.5717644E-2,2.6786447E-1,1.9417639E-1,4.7042343E-1,2.3274694E-1,4.679923E-2,1.07640885E-1,3.18833E-2,-2.2634439E-1,2.403593E-3,-1.7544046E-2,2.4884917E-1,1.2930972E-2,2.6316846E-2,-1.3940997E-1,1.525327E-2,-3.8988712E-1,-2.7207974E-1,-1.3823834E-1,1.1274856E-2,-4.9712768E-1,-5.8594877E-1,-3.129958E-1,-8.9222185E-2,1.853334E-1,2.8657827E-1,7.7739134E-2,5.594916E-2,6.579965E-1,4.5343176E-1,9.439298E-2,6.818346E-2,6.274976E-2,7.292004E-2,4.3407064E-2,5.3519804E-2,2.7719116E-2,-8.0188304E-2,3.060374E-2,2.1837657E-2,1.3641156E-1,2.370206E-1,5.395521E-2,3.58661E-2,1.859997E-2,2.718564E-2,6.4727403E-3,1.4585483E-2,-1.6986965E-1,-2.6327464E-1,7.3438287E-3,-4.8854366E-2,3.853572E-2,-6.651054E-2,3.4923595E-1,-5.1742746E-3,-2.5227093E-3,4.9167257E-3,-1.7893502E-1,-9.7936496E-2,-4.042385E-1,-2.3077281E-1,-2.5359708E-1,-3.7458662E-2,-1.7607312E-1,9.945688E-2,-5.182431E-1,-4.198244E-1,-6.015848E-1,-5.0118214E-1,-2.9742822E-1,-4.129862E-2,-1.8681721E-1,1.30541865E-2,2.7819082E-2,1.7376533E-2,4.575872E-2,2.6376327E-2,6.1496146E-2,6.874112E-2,3.7871383E-2,5.0466206E-2,-1.1834883E-3,6.246208E-3,-1.20065035E-2,-4.2855386E-3,1.7449183E-2,8.386369E-3,2.7856974E-2,1.7730847E-2,-1.9371806E-2,-1.4592567E-2,-2.4361815E-2,-2.778695E-1,-5.0210496E-3,9.146342E-2,-4.609262E-4,7.09428E-3,-1.0531972E-2,-3.0616454E-3,3.0264294E-2,4.5289714E-2,-1.5795415E-2,-1.9639265E-2,-5.3665023E-3,-1.3568513E-2,-4.3381035E-1,-3.6688665E-1,-2.6101578E-2,-2.0019157E-2,-2.969163E-1,-2.0365562E-1,-1.5398671E-2,-2.8158395E-2,-7.140117E-3,3.4281027E-1,-5.260873E-1,-3.8040306E-2,-3.7184346E-2,-4.4023368E-1,-6.070768E-1,-4.395807E-1,-5.307091E-2,-4.6217877E-2,-3.1669717E-2,-2.3656812E-1,-4.021849E-3,-5.6299217E-2,-2.9946467E-2,-2.5358194E-2,-4.1908234E-2,-4.9653616E-2,-3.489725E-2,-3.9124962E-2,-2.7796704E-2,-3.449441E-2,-2.0404188E-2,9.146342E-2,3.0894766E-2,1.1417911E-1,-5.4313898E-2,-5.0184418E-2,-4.729229E-2,-3.9951485E-2,-6.267889E-2,-5.794827E-2,-5.1573247E-2,-4.0276002E-2,-2.6378263E-2,-1.6564437E-3],"categories":[],"categories_nodes":[],"categories_segments":[],"categories_sizes":[],"default_left":[0,0,0,0,0,0,0,0,0,0,0,0,0,0,0,0,0,0,0,0,0,0,0,0,0,0,0,0,0,0,0,0,0,0,0,0,0,0,0,0,0,0,0,0,0,0,0,0,0,0,0,0,0,0,0,0,0,0,0,0,0,0,0,0,0,0,0,0,0,0,0,0,0,0,0,0,0,0,0,0,0,0,0,0,0,0,0,0,0,0,0,0,0,0,0,0,0,0,0,0,0,0,0,0,0,0,0,0,0,0,0,0,0,0,0,0,0,0,0,0,0,0,0,0,0,0,0,0,0,0,0,0,0,0,0,0,0,0,0,0,0,0,0,0,0,0,0,0,0,0,0,0,0,0,0,0,0,0,0,0,0,0,0,0,0,0,0,0,0,0,0,0,0,0,0,0,0,0,0,0,0,0,0,0,0,0,0,0,0],"id":0,"left_children":[1,3,5,7,9,11,13,15,17,19,21,23,25,27,29,31,33,35,37,39,41,43,45,47,49,51,53,55,57,59,61,63,65,67,69,71,73,-1,-1,75,77,79,81,83,-1,85,-1,87,89,91,93,95,-1,97,-1,99,101,103,-1,105,107,109,111,113,115,-1,-1,117,119,-1,-1,-1,-1,-1,-1,121,123,-1,-1,125,127,-1,-1,-1,-1,-1,-1,129,131,-1,133,135,137,139,-1,-1,-1,141,143,145,147,149,-1,151,153,155,157,159,161,163,-1,165,-1,-1,-1,-1,-1,-1,-1,-1,-1,-1,-1,-1,-1,-1,-1,-1,-1,-1,-1,-1,167,-1,-1,-1,-1,-1,-1,-1,-1,-1,-1,-1,-1,169,171,-1,-1,173,175,-1,-1,-1,177,179,-1,-1,181,183,185,-1,-1,-1,187,-1,-1,-1,-1,-1,-1,-1,-1,-1,-1,-1,-1,-1,-1,-1,-1,-1,-1,-1,-1,-1,-1,-1,-1],"loss_changes":[5.0748938E4,1.0316758E4,5.93124E3,1.5619492E3,1.0209254E3,5.2434155E2,1.3121016E3,8.42187E2,6.789258E2,7.9209503E2,3.003274E2,4.5998633E2,2.5868756E2,2.7654883E2,1.3796289E2,4.2930005E2,1.3609131E2,3.862207E2,6.2815918E1,3.5531995E2,1.24144775E2,1.695503E2,7.9891754E1,1.7067188E2,4.89788E1,6.8645706E1,9.949115E1,1.9628418E2,4.400287E1,1.2987305E2,6.058258E0,1.073728E2,2.0188965E1,8.947803E1,2.3117065E1,2.8461426E1,1.8804297E2,0E0,0E0,2.0120857E2,8.162384E0,4.2898193E1,1.3596161E1,7.201636E1,0E0,4.660797E1,0E0,1.5490381E2,1.2427756E1,2.891501E1,2.2335403E1,2.640457E1,0E0,3.8644684E1,0E0,1.1922168E2,3.6626343E1,1.9301079E1,0E0,4.9714844E1,4.704883E1,3.3515625E0,2.8425465E0,2.0277527E1,9.130481E1,0E0,0E0,2.5681152E0,6.3086914E1,0E0,0E0,0E0,0E0,0E0,0E0,4.7956375E1,5.094014E1,0E0,0E0,1.4760681E1,2.4630005E1,0E0,0E0,0E0,0E0,0E0,0E0,1.6717957E1,1.2769287E1,0E0,2.5484061E0,6.8681273E0,7.8142757E0,2.4634552E0,0E0,0E0,0E0,4.3591614E0,1.9227089E1,5.2726562E1,3.9045105E0,3.548474E1,0E0,4.223778E0,1.2300758E1,2.5733398E1,6.2005615E0,2.6520508E1,6.0855713E0,2.1861725E0,0E0,4.9648037E0,0E0,0E0,0E0,0E0,0E0,0E0,0E0,0E0,0E0,0E0,0E0,0E0,0E0,0E0,0E0,0E0,0E0,0E0,0E0,0E0,1.3387207E1,0E0,0E0,0E0,0E0,0E0,0E0,0E0,0E0,0E0,0E0,0E0,0E0,2.4417969E1,9.040527E0,0E0,0E0,7.857544E0,3.4186401E0,0E0,0E0,0E0,2.8011503E0,9.035156E0,0E0,0E0,5.860962E0,1.5416016E1,2.4911194E0,0E0,0E0,0E0,2.8426952E0,0E0,0E0,0E0,0E0,0E0,0E0,0E0,0E0,0E0,0E0,0E0,0E0,0E0,0E0,0E0,0E0,0E0,0E0,0E0,0E0,0E0,0E0,0E0,0E0],"parents":[2147483647,0,0,1,1,2,2,3,3,4,4,5,5,6,6,7,7,8,8,9,9,10,10,11,11,12,12,13,13,14,14,15,15,16,16,17,17,18,18,19,19,20,20,21,21,22,22,23,23,24,24,25,25,26,26,27,27,28,28,29,29,30,30,31,31,32,32,33,33,34,34,35,35,36,36,39,39,40,40,41,41,42,42,43,43,45,45,47,47,48,48,49,49,50,50,51,51,53,53,55,55,56,56,57,57,59,59,60,60,61,61,62,62,63,63,64,64,67,67,68,68,75,75,76,76,79,79,80,80,87,87,88,88,90,90,91,91,92,92,93,93,97,97,98,98,99,99,100,100,101,101,103,103,104,104,105,105,106,106,107,107,108,108,109,109,111,111,132,132,145,145,146,146,149,149,150,150,154,154,155,155,158,158,159,159,160,160,164,164],"right_children":[2,4,6,8,10,12,14,16,18,20,22,24,26,28,30,32,34,36,38,40,42,44,46,48,50,52,54,56,58,60,62,64,66,68,70,72,74,-1,-1,76,78,80,82,84,-1,86,-1,88,90,92,94,96,-1,98,-1,100,102,104,-1,106,108,110,112,114,116,-1,-1,118,120,-1,-1,-1,-1,-1,-1,122,124,-1,-1,126,128,-1,-1,-1,-1,-1,-1,130,132,-1,134,136,138,140,-1,-1,-1,142,144,146,148,150,-1,152,154,156,158,160,162,164,-1,166,-1,-1,-1,-1,-1,-1,-1,-1,-1,-1,-1,-1,-1,-1,-1,-1,-1,-1,-1,-1,168,-1,-1,-1,-1,-1,-1,-1,-1,-1,-1,-1,-1,170,172,-1,-1,174,176,-1,-1,-1,178,180,-1,-1,182,184,186,-1,-1,-1,188,-1,-1,-1,-1,-1,-1,-1,-1,-1,-1,-1,-1,-1,-1,-1,-1,-1,-1,-1,-1,-1,-1,-1,-1],"split_conditions":[1.6168928E-1,-1.7925169E-1,5.6383806E-1,1E0,1E0,1E0,8.6024374E-1,5.710926E-1,1.1355499E-1,5.710926E-1,-1.6709332E-1,5.710926E-1,2.2866008E-1,1.1355499E-1,1.1355499E-1,1E0,1.1355499E-1,-7.1043015E-1,-7.1043015E-1,1.1355499E-1,1.1355499E-1,1.1355499E-1,1.1355499E-1,1.1355499E-1,1.1355499E-1,1.1355499E-1,1.1355499E-1,1E0,1E0,1.0218709E0,5.710926E-1,8.981176E-1,-7.1043015E-1,-7.1043015E-1,-7.1043015E-1,8.981176E-1,8.981176E-1,1.00370884E-1,7.680618E-2,-1.6709332E-1,-1.6709332E-1,8.981176E-1,1.590438E-2,8.981176E-1,4.679923E-2,8.981176E-1,3.18833E-2,2.2866008E-1,2.2866008E-1,2.2866008E-1,2.9968184E-1,8.981176E-1,2.6316846E-2,8.981176E-1,1.525327E-2,5.710926E-1,7.7252334E-1,5.710926E-1,1.1274856E-2,1E0,1E0,1.38617E0,1.0924771E0,-7.1043015E-1,-7.1043015E-1,7.7739134E-2,5.594916E-2,8.981176E-1,8.981176E-1,9.439298E-2,6.818346E-2,6.274976E-2,7.292004E-2,4.3407064E-2,5.3519804E-2,8.981176E-1,8.981176E-1,3.060374E-2,2.1837657E-2,-1.6709332E-1,-1.161684E-1,5.395521E-2,3.58661E-2,1.859997E-2,2.718564E-2,6.4727403E-3,1.4585483E-2,8.981176E-1,2.9968184E-1,7.3438287E-3,4.85587E-1,8.981176E-1,8.981176E-1,2.2866008E-1,-5.1742746E-3,-2.5227093E-3,4.9167257E-3,2.9968184E-1,2.9968184E-1,8.981176E-1,8.981176E-1,8.981176E-1,-3.7458662E-2,6.864973E-1,6.2305665E-1,5.710926E-1,8.6714494E-1,5.710926E-1,8.981176E-1,1E0,-4.129862E-2,9.430108E-1,1.30541865E-2,2.7819082E-2,1.7376533E-2,4.575872E-2,2.6376327E-2,6.1496146E-2,6.874112E-2,3.7871383E-2,5.0466206E-2,-1.1834883E-3,6.246208E-3,-1.20065035E-2,-4.2855386E-3,1.7449183E-2,8.386369E-3,2.7856974E-2,1.7730847E-2,-1.9371806E-2,-1.4592567E-2,-2.4361815E-2,8.981176E-1,-5.0210496E-3,9.146342E-2,-4.609262E-4,7.09428E-3,-1.0531972E-2,-3.0616454E-3,3.0264294E-2,4.5289714E-2,-1.5795415E-2,-1.9639265E-2,-5.3665023E-3,-1.3568513E-2,6.864973E-1,6.2305665E-1,-2.6101578E-2,-2.0019157E-2,6.2305665E-1,6.864973E-1,-1.5398671E-2,-2.8158395E-2,-7.140117E-3,8.0293053E-1,8.981176E-1,-3.8040306E-2,-3.7184346E-2,8.981176E-1,8.981176E-1,1.1984856E0,-5.307091E-2,-4.6217877E-2,-3.1669717E-2,1.2728996E0,-4.021849E-3,-5.6299217E-2,-2.9946467E-2,-2.5358194E-2,-4.1908234E-2,-4.9653616E-2,-3.489725E-2,-3.9124962E-2,-2.7796704E-2,-3.449441E-2,-2.0404188E-2,9.146342E-2,3.0894766E-2,1.1417911E-1,-5.4313898E-2,-5.0184418E-2,-4.729229E-2,-3.9951485E-2,-6.267889E-2,-5.794827E-2,-5.1573247E-2,-4.0276002E-2,-2.6378263E-2,-1.6564437E-3],"split_indices":[1,1,1,3,3,3,1,2,5,2,1,2,1,5,5,5,5,1,1,5,5,5,5,5,5,5,5,3,3,1,2,4,1,1,1,4,4,0,0,1,1,4,1,4,0,4,0,1,1,1,1,4,0,4,0,2,1,2,0,3,3,1,1,1,1,0,0,4,4,0,0,0,0,0,0,4,4,0,0,1,1,0,0,0,0,0,0,4,1,0,1,4,4,1,0,0,0,1,1,4,4,4,0,1,1,2,1,2,4,3,0,1,0,0,0,0,0,0,0,0,0,0,0,0,0,0,0,0,0,0,0,0,4,0,0,0,0,0,0,0,0,0,0,0,0,1,1,0,0,1,1,0,0,0,1,4,0,0,4,4,1,0,0,0,1,0,0,0,0,0,0,0,0,0,0,0,0,0,0,0,0,0,0,0,0,0,0,0,0],"split_type":[0,0,0,0,0,0,0,0,0,0,0,0,0,0,0,0,0,0,0,0,0,0,0,0,0,0,0,0,0,0,0,0,0,0,0,0,0,0,0,0,0,0,0,0,0,0,0,0,0,0,0,0,0,0,0,0,0,0,0,0,0,0,0,0,0,0,0,0,0,0,0,0,0,0,0,0,0,0,0,0,0,0,0,0,0,0,0,0,0,0,0,0,0,0,0,0,0,0,0,0,0,0,0,0,0,0,0,0,0,0,0,0,0,0,0,0,0,0,0,0,0,0,0,0,0,0,0,0,0,0,0,0,0,0,0,0,0,0,0,0,0,0,0,0,0,0,0,0,0,0,0,0,0,0,0,0,0,0,0,0,0,0,0,0,0,0,0,0,0,0,0,0,0,0,0,0,0,0,0,0,0,0,0,0,0,0,0,0,0],"sum_hessian":[6.072857E5,3.2948478E5,2.778009E5,1.6370706E5,1.6577772E5,1.3407119E5,1.4372972E5,6.797599E4,9.573106E4,9.266173E4,7.311599E4,8.8988125E4,4.5083062E4,7.486906E4,6.8860664E4,4.6329598E4,2.1646398E4,8.64628E4,9.268267E3,7.350573E4,1.9155998E4,4.2765465E4,3.0350531E4,7.772373E4,1.1264399E4,2.0254799E4,2.4828266E4,7.169173E4,3.1773333E3,6.645386E4,2.4067998E3,4.241373E4,3.9158665E3,1.9017865E4,2.6285332E3,1.1591466E4,7.487133E4,1.3381333E3,7.930133E3,6.91228E4,4.382933E3,1.7360533E4,1.7954666E3,3.9442266E4,3.3231997E3,2.8438932E4,1.9115999E3,7.4313195E4,3.4105332E3,1.05268E4,7.376E2,1.9092666E4,1.1621333E3,2.3601332E4,1.2269332E3,5.2277465E4,1.9414266E4,2.1424E3,1.0349332E3,3.0647465E4,3.58064E4,2.2766665E3,1.3013333E2,1.89632E4,2.3450531E4,4.973333E2,3.4185332E3,2.4646665E3,1.65532E4,4.0919998E2,2.2193333E3,4.7870664E3,6.8043994E3,3.2712799E4,4.215853E4,3.4891863E4,3.423093E4,2.4702666E3,1.9126665E3,7.395733E3,9.9648E3,1.1063999E3,6.8906665E2,1.7970533E4,2.1471732E4,1.3398266E4,1.5040666E4,2.9385064E4,4.492813E4,1.4301333E3,1.9803999E3,4.906133E3,5.6206665E3,5.5306665E2,1.8453333E2,9.298533E3,9.794133E3,1.20816E4,1.1519732E4,4.79504E4,4.3270664E3,1.6452266E4,2.9619998E3,1.8487999E3,2.9359998E2,2.4066666E4,6.5808E3,3.0223998E4,5.5824E3,1.9742666E3,3.024E2,9.0533325E1,3.96E1,2.0972E3,1.6865998E4,2.7575999E3,2.0692932E4,1.0109333E3,1.4537333E3,6.737333E3,9.815866E3,1.6315199E4,1.8576666E4,1.65492E4,1.7681732E4,4.285733E3,3.1099998E3,5.872933E3,4.0918665E3,1.4716266E4,1.4668799E4,1.9154799E4,2.5773332E4,1.9786665E3,1.7333332E0,2.1034666E3,2.8026665E3,2.6984E3,2.9222666E3,3.8493332E2,1.6813332E2,5.494266E3,6.587333E3,5.304133E3,6.2155996E3,2.6754932E4,2.1195465E4,2.1701333E3,2.156933E3,8.806533E3,7.645733E3,1.5315999E3,3.1719998E2,1.7266666E2,1.2093333E2,2.2767465E4,1.2992E3,1.9710665E3,4.609733E3,2.9229732E4,9.942666E2,3.1685332E3,2.4138665E3,1.4950665E3,4.7919998E2,6.613333E1,2.4399998E1,1.3634666E4,1.2138666E4,2.1674932E4,5.0799995E3,1.2225466E4,8.969999E3,6.321333E3,2.4852E3,7.6439995E3,1.7333332E0,1.1746666E2,3.4666665E0,1.3351199E4,9.416266E3,2.5497332E3,2.0599998E3,1.70352E4,1.2194532E4,3.1893332E2,6.753333E2,4.2586664E2,5.333333E1],"tree_param":{"num_deleted":"0","num_feature":"7","num_nodes":"189","size_leaf_vector":"1"}},{"base_weights":[1.3701582E-1,1.6648628E-1,-1.3165389E-1,5.830747E-2,2.1251036E-1,2.3563735E-1,-1.8387201E-1,3.7157536E-2,2.558616E-1,2.6872188E-1,1.1018892E-1,2.763237E-1,1.1298321E-1,-1.2110656E-1,-2.9637757E-1,6.2470265E-2,-2.2110821E-1,2.3729013E-1,3.6772585E-1,2.8144392E-1,4.01483E-2,1.9480954E-1,3.3647273E-2,2.7019067E-2,3.6272377E-1,3.0332102E-2,1.0319419E-1,-1.3235416E-1,1.8862878E-1,-3.077393E-1,7.919418E-2,-4.7359798E-2,7.90736E-2,-3.4182165E-2,-1.9955311E-2,1.7031968E-1,2.4495505E-1,4.133256E-2,3.2385078E-1,2.2213657E-1,3.069981E-1,-3.172088E-2,8.629172E-2,2.2934197E-1,1.573276E-1,-1.2508133E-1,5.216434E-2,2.3258151E-2,4.6602413E-1,1.2842888E-1,1.9961467E-2,-3.418036E-1,-1.20598845E-1,-3.0349953E-2,3.660215E-1,-3.1379768E-1,-5.6279E-4,-5.2365936E-2,1.5693179E-1,-2.1510455E-3,-8.016533E-3,1.1699467E-2,5.0016697E-2,1.4941196E-2,3.3228245E-2,2.2681534E-1,2.610205E-1,3.407591E-2,1.2670001E-1,2.4836011E-2,2.0049067E-1,2.8727925E-1,3.165699E-1,-7.356078E-4,-1.6098289E-1,5.373971E-2,1.358343E-1,2.2196315E-1,2.9400957E-1,1.4595905E-1,2.9217172E-1,-8.131087E-2,-2.1497405E-1,8.738676E-2,-4.3099807E-3,5.634997E-2,2.5913125E-1,1.2439307E-1,1.1799999E-1,-5.203989E-3,9.174892E-3,-3.439318E-1,9.6666664E-2,-1.281715E-1,9.156072E-3,5.3387815E-1,2.9677242E-1,-2.684015E-1,-3.4526548E-1,-1.402208E-1,1.6428275E-2,1.8583128E-2,-4.9523816E-2,9.0889743E-4,-7.819566E-3,5.241337E-3,3.4417998E-2,2.0504257E-2,2.824114E-2,2.6561795E-2,1.8573705E-2,8.702289E-2,4.8009306E-3,2.0453049E-2,1.7312376E-1,2.9180485E-1,2.4928716E-1,3.8829052E-1,3.1531698E-1,-6.832462E-2,-1.5233894E-2,-1.8883255E-1,5.71021E-3,1.884494E-1,6.576809E-2,2.323413E-1,2.1282174E-1,3.3032406E-2,2.5491053E-1,7.1673295E-3,1.5983436E-1,1.7600661E-2,3.2091504E-1,-9.334377E-2,6.83152E-2,-2.2349713E-2,-8.927822E-2,8.052454E-2,3.0788806E-1,-1.1739367E-2,2.5752962E-2,1.1799999E-1,1.810073E-2,1.4016883E-2,-1.8769081E-1,-2.661692E-1,-3.7717078E-2,-9.4938524E-2,-1.6880044E-1,5.6383885E-2,1.6123775E-2,3.099537E-1,2.3385253E-2,-4.4871467E-1,-2.6182923E-2,-5.1107835E-2,-3.430773E-2,-6.595745E-2,-1.1251357E-2,2.1197002E-2,3.2775332E-3,3.998875E-2,1.7035013E-2,3.619323E-2,2.9082475E-2,6.858789E-2,2.4387252E-2,4.0303964E-2,2.391471E-2,3.179839E-2,2.8672874E-2,-3.8330503E-2,9.079898E-3,2.0711962E-2,2.0337056E-3,6.3652396E-3,9.6666664E-2,2.6057124E-2,2.2011684E-2,1.660099E-2,2.2477353E-2,2.293747E-2,4.3468393E-2,1.5593198E-2,2.6575765E-2,3.513107E-2,2.7092567E-2,-1.2886588E-2,-5.6289984E-3,1.2892558E-2,-1.1456108E-2,-2.5332658E-2,2.4520215E-3,7.241064E-3,2.1799354E-2,2.5511626E-2,3.4869794E-2,-2.0323773E-3,1.5292361E-2,7.918547E-3,-7.119404E-2,-2.7295431E-2,9.6666664E-2,-7.4520186E-3,-1.1550891E-2,-1.4392845E-2,-1.8956447E-2,3.5964184E-2,2.0246042E-2,-2.2419933E-2,4.0983602E-2,-4.640147E-2,9.6666664E-2],"categories":[],"categories_nodes":[],"categories_segments":[],"categories_sizes":[],"default_left":[0,0,0,0,0,0,0,0,0,0,0,0,0,0,0,0,0,0,0,0,0,0,0,0,0,0,0,0,0,0,0,0,0,0,0,0,0,0,0,0,0,0,0,0,0,0,0,0,0,0,0,0,0,0,0,0,0,0,0,0,0,0,0,0,0,0,0,0,0,0,0,0,0,0,0,0,0,0,0,0,0,0,0,0,0,0,0,0,0,0,0,0,0,0,0,0,0,0,0,0,0,0,0,0,0,0,0,0,0,0,0,0,0,0,0,0,0,0,0,0,0,0,0,0,0,0,0,0,0,0,0,0,0,0,0,0,0,0,0,0,0,0,0,0,0,0,0,0,0,0,0,0,0,0,0,0,0,0,0,0,0,0,0,0,0,0,0,0,0,0,0,0,0,0,0,0,0,0,0,0,0,0,0,0,0,0,0,0,0,0,0,0,0,0,0,0,0,0,0,0,0,0,0,0,0,0,0,0,0,0,0,0,0],"id":1,"left_children":[1,3,5,7,9,11,13,15,17,19,21,23,25,27,29,31,33,35,37,39,41,43,45,-1,47,-1,49,51,53,55,57,59,61,-1,-1,63,65,-1,67,69,71,73,75,77,79,81,83,-1,85,87,89,91,93,-1,95,97,99,-1,101,103,-1,-1,105,-1,-1,107,109,-1,111,-1,113,115,117,-1,119,121,123,125,127,129,131,133,135,137,139,-1,141,143,-1,-1,-1,145,-1,147,-1,149,151,153,155,157,-1,-1,-1,-1,-1,-1,159,-1,-1,-1,-1,-1,-1,-1,161,163,165,167,169,-1,-1,171,-1,173,175,177,179,-1,181,-1,183,-1,185,187,189,-1,191,193,195,197,-1,-1,-1,-1,199,201,-1,203,205,-1,-1,207,209,211,-1,-1,-1,-1,-1,-1,-1,-1,-1,-1,-1,-1,-1,-1,-1,-1,-1,-1,-1,-1,-1,-1,-1,-1,-1,-1,-1,-1,-1,-1,-1,-1,-1,-1,-1,-1,-1,-1,-1,-1,-1,-1,-1,-1,-1,-1,-1,-1,-1,-1,-1,-1,-1,-1,-1,-1,-1,-1,-1],"loss_changes":[4.818657E3,2.7304736E3,1.1538048E3,6.8388855E2,2.2128105E3,3.7298584E1,3.7184827E2,9.666156E2,3.273645E1,7.220508E2,8.835642E2,2.817627E0,3.407673E0,1.1780838E2,8.052551E1,2.4556982E2,3.4218872E1,6.886963E0,4.2962646E0,3.56375E2,4.3431473E1,8.37854E1,2.10537E2,0E0,4.7771072E0,0E0,3.7174416E0,8.024463E1,1.0355618E2,3.4037354E1,2.6023998E1,2.621838E1,1.2887341E2,0E0,0E0,4.640026E0,3.4417114E0,0E0,3.7535858E0,4.011499E1,3.0875977E1,1.6106083E1,1.2835541E1,1.5972412E1,4.7547485E1,2.939637E1,1.27611694E2,0E0,3.8871307E0,5.5089703E0,2.1579297E0,5.095642E0,4.9651672E1,0E0,9.88913E0,2.5491333E1,8.202648E0,0E0,9.3327465E0,6.365598E0,0E0,0E0,2.465683E0,0E0,0E0,6.8312683E0,2.1380005E0,0E0,5.3155184E0,0E0,4.2178955E0,9.112305E0,9.750977E0,0E0,3.4747581E0,3.9254875E0,1.1613369E1,2.77771E0,4.754181E0,2.9505737E1,7.9552155E0,9.07407E0,2.5725555E0,5.9719147E1,4.7912247E1,0E0,4.5087867E0,6.714369E0,0E0,0E0,0E0,4.309143E0,0E0,4.0236206E1,0E0,2.659729E0,2.1924477E0,8.528076E0,3.5844727E0,2.6296601E0,0E0,0E0,0E0,0E0,0E0,0E0,2.543826E0,0E0,0E0,0E0,0E0,0E0,0E0,0E0,3.0210419E0,3.1291504E0,1.328244E1,4.0061035E0,8.139648E0,0E0,0E0,3.635049E0,0E0,5.634201E0,2.4234438E0,4.781311E0,8.937561E0,0E0,7.4840775E0,0E0,9.897583E0,0E0,2.7805328E0,6.109524E0,4.169825E0,0E0,2.9774613E0,4.2696228E1,2.4170532E0,3.3861225E1,0E0,0E0,0E0,0E0,9.288404E0,4.5660057E0,0E0,6.8659515E0,6.86969E0,0E0,0E0,3.0261574E0,2.9744475E0,5.957939E0,0E0,0E0,0E0,0E0,0E0,0E0,0E0,0E0,0E0,0E0,0E0,0E0,0E0,0E0,0E0,0E0,0E0,0E0,0E0,0E0,0E0,0E0,0E0,0E0,0E0,0E0,0E0,0E0,0E0,0E0,0E0,0E0,0E0,0E0,0E0,0E0,0E0,0E0,0E0,0E0,0E0,0E0,0E0,0E0,0E0,0E0,0E0,0E0,0E0,0E0,0E0,0E0,0E0,0E0,0E0,0E0,0E0,0E0,0E0],"parents":[2147483647,0,0,1,1,2,2,3,3,4,4,5,5,6,6,7,7,8,8,9,9,10,10,11,11,12,12,13,13,14,14,15,15,16,16,17,17,18,18,19,19,20,20,21,21,22,22,24,24,26,26,27,27,28,28,29,29,30,30,31,31,32,32,35,35,36,36,38,38,39,39,40,40,41,41,42,42,43,43,44,44,45,45,46,46,48,48,49,49,50,50,51,51,52,52,54,54,55,55,56,56,58,58,59,59,62,62,65,65,66,66,68,68,70,70,71,71,72,72,74,74,75,75,76,76,77,77,78,78,79,79,80,80,81,81,82,82,83,83,84,84,86,86,87,87,91,91,93,93,95,95,96,96,97,97,98,98,99,99,106,106,114,114,115,115,116,116,117,117,118,118,121,121,123,123,124,124,125,125,126,126,128,128,130,130,132,132,133,133,134,134,136,136,137,137,138,138,139,139,144,144,145,145,147,147,148,148,151,151,152,152,153,153],"right_children":[2,4,6,8,10,12,14,16,18,20,22,24,26,28,30,32,34,36,38,40,42,44,46,-1,48,-1,50,52,54,56,58,60,62,-1,-1,64,66,-1,68,70,72,74,76,78,80,82,84,-1,86,88,90,92,94,-1,96,98,100,-1,102,104,-1,-1,106,-1,-1,108,110,-1,112,-1,114,116,118,-1,120,122,124,126,128,130,132,134,136,138,140,-1,142,144,-1,-1,-1,146,-1,148,-1,150,152,154,156,158,-1,-1,-1,-1,-1,-1,160,-1,-1,-1,-1,-1,-1,-1,162,164,166,168,170,-1,-1,172,-1,174,176,178,180,-1,182,-1,184,-1,186,188,190,-1,192,194,196,198,-1,-1,-1,-1,200,202,-1,204,206,-1,-1,208,210,212,-1,-1,-1,-1,-1,-1,-1,-1,-1,-1,-1,-1,-1,-1,-1,-1,-1,-1,-1,-1,-1,-1,-1,-1,-1,-1,-1,-1,-1,-1,-1,-1,-1,-1,-1,-1,-1,-1,-1,-1,-1,-1,-1,-1,-1,-1,-1,-1,-1,-1,-1,-1,-1,-1,-1,-1,-1,-1,-1],"split_conditions":[9.3287235E-1,-1.7925169E-1,3E0,3E0,3E0,1.1798925E0,1.2728996E0,1.1355499E-1,5.710926E-1,1.1355499E-1,3.8297176E-1,5.710926E-1,2E0,1.1355499E-1,1.1355499E-1,-7.1043015E-1,-7.1043015E-1,-7.1043015E-1,4E0,-1.161684E-1,1.590438E-2,1.6168928E-1,4E0,2.7019067E-2,9.430108E-1,3.0332102E-2,1.6235601E0,4E0,4E0,5.710926E-1,4E0,8.981176E-1,8.981176E-1,-3.4182165E-2,-1.9955311E-2,1.8140677E-1,4E0,4.133256E-2,1.1355499E-1,8.981176E-1,1.6168928E-1,5.710926E-1,2.2866008E-1,5.710926E-1,5.710926E-1,6.2305665E-1,6.2305665E-1,2.3258151E-2,1.0606232E0,1.38617E0,8.981176E-1,1.2159601E0,5.710926E-1,-3.0349953E-2,9.430108E-1,1.4444925E0,8.981176E-1,-5.2365936E-2,5.710926E-1,5.710926E-1,-8.016533E-3,1.1699467E-2,5.710926E-1,1.4941196E-2,3.3228245E-2,1.1355499E-1,1.1355499E-1,3.407591E-2,-7.1043015E-1,2.4836011E-2,5.710926E-1,5.710926E-1,2E0,-7.356078E-4,2E0,2E0,4.85587E-1,-1.6709332E-1,-1.6709332E-1,4E0,4E0,5.710926E-1,5.710926E-1,1.1355499E-1,1.1355499E-1,5.634997E-2,2E0,5.710926E-1,1.1799999E-1,-5.203989E-3,9.174892E-3,9.6490467E-1,9.6666664E-2,1.0120021E0,9.156072E-3,5.710926E-1,5.710926E-1,4E0,4E0,4E0,1.6428275E-2,1.8583128E-2,-4.9523816E-2,9.0889743E-4,-7.819566E-3,5.241337E-3,2E0,2.0504257E-2,2.824114E-2,2.6561795E-2,1.8573705E-2,8.702289E-2,4.8009306E-3,2.0453049E-2,2E0,2E0,2E0,7.772076E-1,5.710926E-1,-6.832462E-2,-1.5233894E-2,1.6168928E-1,5.71021E-3,5.710926E-1,8.6714494E-1,4E0,4E0,3.3032406E-2,1.1355499E-1,7.1673295E-3,1.1355499E-1,1.7600661E-2,2.2866008E-1,8.981176E-1,1.1355499E-1,-2.2349713E-2,6.864973E-1,5.710926E-1,4.85587E-1,5.710926E-1,2.5752962E-2,1.1799999E-1,1.810073E-2,1.4016883E-2,8.981176E-1,9.430108E-1,-3.7717078E-2,9.430108E-1,1.0924771E0,5.6383885E-2,1.6123775E-2,1.0924771E0,1.0924771E0,1.38617E0,-2.6182923E-2,-5.1107835E-2,-3.430773E-2,-6.595745E-2,-1.1251357E-2,2.1197002E-2,3.2775332E-3,3.998875E-2,1.7035013E-2,3.619323E-2,2.9082475E-2,6.858789E-2,2.4387252E-2,4.0303964E-2,2.391471E-2,3.179839E-2,2.8672874E-2,-3.8330503E-2,9.079898E-3,2.0711962E-2,2.0337056E-3,6.3652396E-3,9.6666664E-2,2.6057124E-2,2.2011684E-2,1.660099E-2,2.2477353E-2,2.293747E-2,4.3468393E-2,1.5593198E-2,2.6575765E-2,3.513107E-2,2.7092567E-2,-1.2886588E-2,-5.6289984E-3,1.2892558E-2,-1.1456108E-2,-2.5332658E-2,2.4520215E-3,7.241064E-3,2.1799354E-2,2.5511626E-2,3.4869794E-2,-2.0323773E-3,1.5292361E-2,7.918547E-3,-7.119404E-2,-2.7295431E-2,9.6666664E-2,-7.4520186E-3,-1.1550891E-2,-1.4392845E-2,-1.8956447E-2,3.5964184E-2,2.0246042E-2,-2.2419933E-2,4.0983602E-2,-4.640147E-2,9.6666664E-2],"split_indices":[1,1,0,0,0,1,1,5,2,5,1,2,0,5,5,1,1,1,0,1,1,1,0,0,1,0,1,0,0,2,0,4,4,0,0,5,0,0,5,4,1,2,1,2,2,1,1,0,1,1,4,1,2,0,1,1,4,0,2,2,0,0,2,0,0,5,5,0,1,0,2,2,0,0,0,0,1,1,1,0,0,2,2,5,5,0,0,2,0,0,0,1,0,1,0,2,2,0,0,0,0,0,0,0,0,0,0,0,0,0,0,0,0,0,0,0,0,1,2,0,0,1,0,2,1,0,0,0,5,0,5,0,1,4,5,0,1,2,1,2,0,0,0,0,4,1,0,1,1,0,0,1,1,1,0,0,0,0,0,0,0,0,0,0,0,0,0,0,0,0,0,0,0,0,0,0,0,0,0,0,0,0,0,0,0,0,0,0,0,0,0,0,0,0,0,0,0,0,0,0,0,0,0,0,0,0,0,0,0,0,0,0,0],"split_type":[0,0,0,0,0,0,0,0,0,0,0,0,0,0,0,0,0,0,0,0,0,0,0,0,0,0,0,0,0,0,0,0,0,0,0,0,0,0,0,0,0,0,0,0,0,0,0,0,0,0,0,0,0,0,0,0,0,0,0,0,0,0,0,0,0,0,0,0,0,0,0,0,0,0,0,0,0,0,0,0,0,0,0,0,0,0,0,0,0,0,0,0,0,0,0,0,0,0,0,0,0,0,0,0,0,0,0,0,0,0,0,0,0,0,0,0,0,0,0,0,0,0,0,0,0,0,0,0,0,0,0,0,0,0,0,0,0,0,0,0,0,0,0,0,0,0,0,0,0,0,0,0,0,0,0,0,0,0,0,0,0,0,0,0,0,0,0,0,0,0,0,0,0,0,0,0,0,0,0,0,0,0,0,0,0,0,0,0,0,0,0,0,0,0,0,0,0,0,0,0,0,0,0,0,0,0,0,0,0,0,0,0,0],"sum_hessian":[6.0857956E5,5.4842356E5,6.0155996E4,1.6368625E5,3.847373E5,7.4871997E3,5.2668797E4,1.4785839E5,1.5827866E4,2.4831812E5,1.3641919E5,5.6206665E3,1.8665332E3,3.380973E4,1.8859066E4,1.3466133E5,1.3197065E4,1.3577732E4,2.2501333E3,2.3522519E5,1.3092933E4,6.478893E4,7.1630266E4,5.2530664E3,3.6759998E2,8.933333E1,1.7772E3,3.2625865E4,1.1838666E3,1.8305732E4,5.533333E2,1.7682799E4,1.1697852E5,1.9965332E3,1.1200532E4,1.3981333E3,1.21796E4,1.0981333E3,1.1519999E3,7.083693E4,1.6438825E5,5.1186665E3,7.974266E3,3.37172E4,3.1071732E4,7.482133E3,6.414813E4,1.6453333E2,2.0306665E2,1.3623999E3,4.148E2,1.7318666E3,3.0893998E4,3.133333E2,8.7053326E2,1.7951332E4,3.544E2,6.2399998E1,4.9093332E2,7.4374663E3,1.0245333E4,5.074573E4,6.62328E4,1.2405332E3,1.5759999E2,5.730533E3,6.4490664E3,1.0598666E3,9.213333E1,3.2024664E4,3.8812266E4,5.3733465E4,1.106548E5,4.3084E3,8.102666E2,4.8148E3,3.1594666E3,3.0269332E4,3.4478665E3,2.8658398E4,2.4133333E3,5.0339995E3,2.4481333E3,3.95084E4,2.4639732E4,1.3653333E2,6.653333E1,1.3583999E3,3.9999998E0,2.0653333E2,2.0826665E2,1.7298666E3,1.9999999E0,2.983013E4,1.0638666E3,2.5186665E2,6.186666E2,7.3543994E3,1.0596933E4,1.9226666E2,1.6213333E2,4.7093332E2,1.9999998E1,6.479333E3,9.581333E2,5.740413E4,8.828666E3,4.122533E3,1.6079999E3,6.074266E3,3.748E2,7.7333326E0,8.4399994E1,3.3811066E4,5.0011997E3,4.800573E4,5.727733E3,1.8931998E3,1.0876159E5,1.1733333E1,7.9853326E2,6.4666664E1,4.750133E3,1.8026665E3,1.3567999E3,1.4159199E4,1.6110133E4,1.7823999E3,1.6654666E3,4.512533E3,2.4145865E4,4.8079996E2,1.9325332E3,4.6602666E3,3.737333E2,2.2912E3,1.5693332E2,3.831773E4,1.1906666E3,2.39612E4,6.7853326E2,3.9999998E0,6.253333E1,1.2938666E3,6.453333E1,5.216E2,1.2082666E3,1.6411732E4,1.3418399E4,2.3239998E2,1.9466665E1,5.897333E2,2.8933332E1,2.5573332E2,7.098666E3,1.344E2,1.0462532E4,8.4E0,1.8386665E2,7.92E1,8.749466E3,5.8266663E1,4.942933E3,6.5519995E2,4.735053E4,6.8399994E1,5.659333E3,1.7206665E3,1.7253333E2,9.94688E4,9.2928E3,3.813333E1,2.653333E1,1.6217333E3,1.8093332E2,1.3547999E3,1.9999999E0,4.2699995E3,9.889199E3,3.2813333E3,1.2828799E4,1.4607999E3,2.0466666E2,2.32912E4,8.546666E2,1.1967999E3,7.357333E2,2.3766665E3,2.2835999E3,2.813333E2,9.2399994E1,6.413333E1,9.2799995E1,3.6184266E4,2.1334666E3,5.234666E2,6.6719995E2,2.2775332E4,1.1858666E3,4.3199997E1,2.1333332E1,5.196E2,1.9999999E0,8.241066E3,8.170666E3,6.1110664E3,7.307333E3,4.0106665E2,1.8866666E2,1.7733332E1,1.1199999E1,2.5373332E2,1.9999999E0],"tree_param":{"num_deleted":"0","num_feature":"7","num_nodes":"213","size_leaf_vector":"1"}},{"base_weights":[-1.5941364E-1,-4.475481E-1,4.087998E-1,-5.200097E-1,-2.8290063E-1,1.7713328E-1,6.3123244E-1,-5.7048184E-1,-4.6364835E-1,-3.4560677E-1,-1.5002204E-1,5.914872E-2,2.9268715E-1,5.092788E-1,8.06253E-1,-5.588067E-1,-6.9059655E-2,-4.5316166E-1,-6.2571585E-2,-3.3611852E-1,-5.607092E-2,-1.9471198E-1,-1.39181875E-2,1.2394859E-1,-2.9084476E-2,4.9050295E-1,2.5818208E-1,7.5950354E-1,4.8405036E-1,8.256379E-1,2.2905412E-1,-5.280901E-1,-5.797563E-1,-4.220807E-1,-4.7931874E-1,-3.071857E-1,-3.880931E-1,-1.8213539E-1,-4.9691555E-1,2.918952E-2,-1.2531455E-1,2.3531225E-1,8.475806E-2,-1.4255784E-1,3.7845995E-2,4.1783273E-1,6.349288E-1,2.763277E-1,-2.5906172E-1,8.2031524E-1,6.1954105E-1,5.023801E-1,-1.6115119E-1,7.4514973E-1,9.279521E-1,1.0108101E0,5.3248692E-2,-5.027763E-1,-5.4718894E-1,-6.419765E-2,-5.6969285E-1,-3.968554E-1,-4.5207423E-1,-4.5475593E-1,-5.0890106E-1,-3.47894E-1,-2.7447084E-1,-4.2466995E-1,-3.5371417E-1,-1.4987719E-1,-2.526437E-1,-4.392149E-2,-5.959915E-2,7.1073934E-2,-2.325734E-2,-1.1098306E-1,-4.1505998E-1,1.1728103E-1,3.1441006E-1,1.0977076E-1,-3.7843578E-2,-1.2721635E-1,-2.1293153E-1,1.0645637E-1,6.1708437E-3,4.9748427E-1,2.964876E-2,6.80572E-2,5.495655E-1,3.109081E-1,1.8944545E-1,-3.172935E-2,-1.52218705E-2,7.750233E-1,9.8302627E-1,5.167591E-1,7.152835E-1,4.4417325E-1,5.8477634E-1,-1.1220511E-1,-2.999005E-1,1.0912242E0,7.27019E-1,9.562977E-1,7.3713416E-1,8.119891E-2,1.0842717E-1,3.5861298E-4,1.980512E-2,-5.4705113E-2,-4.9691256E-2,-5.9216626E-2,-5.408302E-2,-5.475783E-2,-5.8681972E-2,-4.1406136E-2,-3.7703406E-2,-4.7494065E-2,-4.1866746E-2,-4.753538E-1,-4.29672E-2,-5.2909847E-2,-4.779209E-2,-3.1007606E-1,-3.817083E-1,-2.4520323E-1,-3.0344725E-1,-4.0818833E-2,-4.3910098E-1,-3.3019283E-1,-3.768832E-2,-1.0593492E-1,-1.9585909E-1,-2.9268464E-1,-1.7615421E-1,4.3364335E-2,1.826388E-1,-6.5211738E-3,1.656904E-2,-5.2816402E-2,-1.6891032E-1,-4.730701E-2,-1.7110307E-2,-4.8671565E-3,1.346575E-1,2.5550112E-2,3.8270205E-2,1.7999707E-2,1.3780357E-1,-1.0641095E-2,-1.4273365E-2,-1.46723455E-2,-5.675924E-2,1.227454E-2,5.594014E-3,2.764051E-2,-4.0612432E-1,4.450697E-1,5.724162E-1,4.6672698E-2,6.460359E-2,2.619422E-1,3.357432E-1,1.3133878E-2,2.2370757E-1,7.767444E-2,-5.597016E-2,9.901204E-1,-5.597016E-2,5.1941197E-2,-4.390244E-2,8.334373E-2,6.4658535E-1,4.71065E-1,3.5877106E-1,6.1342084E-1,4.6768144E-1,-9.0562075E-2,-2.120264E-2,-3.622899E-2,-1.954249E-2,1.1534958E0,8.8930374E-1,7.526022E-1,6.0380965E-1,9.01353E-1,9.932186E-1,6.802208E-1,7.847848E-2,-3.0090602E-3,1.3737458E-1,-3.218152E-2,-4.7716763E-2,-1.81334E-2,-3.1176819E-2,-1.5214212E-2,-3.851679E-2,-7.599571E-3,-2.4815468E-2,-1.5781045E-2,-3.0599443E-2,-2.954413E-2,-4.412775E-2,-1.4019682E-2,-3.326158E-2,-1.3451618E-2,-5.6787245E-3,-2.0970365E-2,-1.0988246E-2,-2.5916932E-2,-3.2588374E-2,-1.4108576E-2,-2.1407332E-2,5.4217246E-3,-9.394032E-3,2.1255614E-2,-2.27159E-2,2.9715963E-3,-9.9549405E-3,-1.4996988E-2,-1.9477882E-3,-2.252437E-2,-1.1479673E-2,1.0636363E-1,-2.892377E-2,1.6550047E-2,9.472703E-3,7.0313113E-3,-3.6691565E-3,1.5502745E-2,1.1817707E-2,5.9116576E-3,-8.7272393E-4,-4.786059E-2,-3.2374106E-2,4.748523E-2,3.5318118E-2,5.228284E-2,7.5131476E-2,3.0163506E-2,2.138959E-2,3.0907933E-2,3.5252057E-2,2.6022583E-2,1.7499529E-2,1.0623743E-1,9.128975E-2,-6.1855674E-2,6.602725E-2,4.463731E-2,5.2299704E-2,3.9647557E-2,3.0503472E-2,5.6476396E-2,6.3924685E-2,5.0693043E-2,4.112115E-2,-1.46750575E-2,4.525702E-3,1.2653197E-1,1.0578553E-1,9.012376E-2,-4.666667E-2,7.000129E-2,7.831933E-2,5.5835105E-2,7.09134E-2,1.19075954E-1,8.92317E-2,1.024344E-1,9.494489E-2,9.654029E-2,6.597445E-2,4.3658536E-2,2.6579995E-3],"categories":[],"categories_nodes":[],"categories_segments":[],"categories_sizes":[],"default_left":[0,0,0,0,0,0,0,0,0,0,0,0,0,0,0,0,0,0,0,0,0,0,0,0,0,0,0,0,0,0,0,0,0,0,0,0,0,0,0,0,0,0,0,0,0,0,0,0,0,0,0,0,0,0,0,0,0,0,0,0,0,0,0,0,0,0,0,0,0,0,0,0,0,0,0,0,0,0,0,0,0,0,0,0,0,0,0,0,0,0,0,0,0,0,0,0,0,0,0,0,0,0,0,0,0,0,0,0,0,0,0,0,0,0,0,0,0,0,0,0,0,0,0,0,0,0,0,0,0,0,0,0,0,0,0,0,0,0,0,0,0,0,0,0,0,0,0,0,0,0,0,0,0,0,0,0,0,0,0,0,0,0,0,0,0,0,0,0,0,0,0,0,0,0,0,0,0,0,0,0,0,0,0,0,0,0,0,0,0,0,0,0,0,0,0,0,0,0,0,0,0,0,0,0,0,0,0,0,0,0,0,0,0,0,0,0,0,0,0,0,0,0,0,0,0,0,0,0,0,0,0,0,0,0,0,0,0,0,0,0,0,0,0,0,0,0,0,0,0,0,0,0,0,0,0,0,0,0,0,0,0,0,0,0,0,0,0,0,0,0,0,0,0,0,0],"id":2,"left_children":[1,3,5,7,9,11,13,15,17,19,21,23,25,27,29,31,-1,33,-1,35,-1,37,39,41,43,45,47,49,51,53,55,57,59,61,63,65,67,69,71,73,75,77,79,81,83,85,87,89,91,93,95,97,99,101,103,105,107,109,111,-1,113,115,117,119,121,123,125,127,129,131,133,-1,-1,135,137,139,141,143,145,147,-1,149,151,153,155,157,-1,-1,159,161,163,-1,-1,165,167,169,171,173,175,177,179,181,183,185,187,-1,-1,189,-1,-1,-1,-1,-1,-1,-1,-1,-1,-1,-1,191,-1,-1,-1,193,195,197,199,-1,201,203,-1,205,207,209,211,213,215,-1,217,219,221,-1,223,-1,225,-1,-1,227,229,-1,-1,-1,-1,-1,-1,231,233,235,237,-1,-1,239,241,-1,243,-1,-1,245,-1,-1,-1,-1,247,249,251,253,255,257,-1,-1,-1,259,261,263,265,267,269,271,-1,-1,273,-1,-1,-1,-1,-1,-1,-1,-1,-1,-1,-1,-1,-1,-1,-1,-1,-1,-1,-1,-1,-1,-1,-1,-1,-1,-1,-1,-1,-1,-1,-1,-1,-1,-1,-1,-1,-1,-1,-1,-1,-1,-1,-1,-1,-1,-1,-1,-1,-1,-1,-1,-1,-1,-1,-1,-1,-1,-1,-1,-1,-1,-1,-1,-1,-1,-1,-1,-1,-1,-1,-1,-1,-1,-1,-1,-1,-1,-1,-1,-1,-1,-1,-1,-1],"loss_changes":[9.959888E4,4.8156094E3,1.054743E4,7.9697656E2,1.0277812E3,1.3669119E3,2.2283398E3,2.0684766E2,2.2467969E2,1.7077148E2,2.4055554E2,2.8367084E2,3.4554053E2,3.8802832E2,4.794922E2,8.63125E1,0E0,1.0083008E2,0E0,1.2052051E2,0E0,1.130083E2,4.6970516E1,1.2479346E2,1.5956644E2,7.8572754E1,4.0490454E2,4.7306885E1,6.613447E2,3.407871E2,1.9154599E2,2.6045898E1,4.9677734E1,4.2748047E1,4.8742188E1,6.8524414E1,3.5861816E1,6.494348E1,6.43042E0,1.5494236E1,1.1234005E1,6.9426575E1,2.4518492E2,8.354385E0,2.870547E1,4.8169983E1,9.30365E0,1.2509009E2,9.002052E0,2.7983643E1,1.6347046E1,2.6038477E2,1.0418499E1,1.4475488E2,9.7899414E1,2.6680603E0,8.7104E0,5.7299805E0,8.472656E0,0E0,2.5689453E1,1.0299805E1,1.9544434E1,1.8774414E1,1.8810059E1,2.9190918E1,2.4125244E1,3.041748E0,7.87146E0,3.9586975E1,2.7377563E1,0E0,0E0,1.2091751E1,5.236169E0,8.736855E0,2.8962402E0,8.635605E0,1.7767273E1,5.1635086E1,0E0,2.0271454E0,3.2542374E1,3.4087334E0,8.001584E1,1.1508484E1,0E0,0E0,6.6383057E0,3.6097656E1,2.3561157E1,0E0,0E0,7.520752E0,9.903564E0,2.339096E0,6.4792786E0,7.2930176E1,7.5083984E1,2.4227982E0,2.4924316E0,1.3279419E1,6.898535E1,3.116211E1,5.738037E0,0E0,0E0,3.504625E0,0E0,0E0,0E0,0E0,0E0,0E0,0E0,0E0,0E0,0E0,0E0,5.407715E0,0E0,0E0,0E0,2.2580566E0,9.515869E0,7.0579834E0,5.234253E0,0E0,2.1080322E0,3.2920532E0,0E0,1.406868E1,1.1352814E1,6.4064636E0,4.0378494E0,4.684877E0,9.599047E0,0E0,2.4467788E0,4.1931467E0,3.9105797E0,0E0,5.3867707E0,0E0,3.2920074E0,0E0,0E0,1.3453239E1,5.1532288E0,0E0,0E0,0E0,0E0,0E0,0E0,9.845589E0,2.4363708E0,4.628601E0,1.0472351E1,0E0,0E0,1.9023193E1,8.669189E0,0E0,1.3186523E1,0E0,0E0,3.5579224E0,0E0,0E0,0E0,0E0,1.0166199E1,3.0740234E1,1.5280457E1,2.2233398E1,9.513489E0,7.2132664E0,0E0,0E0,0E0,7.821289E0,4.942108E0,2.8700195E1,1.7675537E1,1.5467285E1,1.1768555E1,5.5480347E0,0E0,0E0,5.0097513E0,0E0,0E0,0E0,0E0,0E0,0E0,0E0,0E0,0E0,0E0,0E0,0E0,0E0,0E0,0E0,0E0,0E0,0E0,0E0,0E0,0E0,0E0,0E0,0E0,0E0,0E0,0E0,0E0,0E0,0E0,0E0,0E0,0E0,0E0,0E0,0E0,0E0,0E0,0E0,0E0,0E0,0E0,0E0,0E0,0E0,0E0,0E0,0E0,0E0,0E0,0E0,0E0,0E0,0E0,0E0,0E0,0E0,0E0,0E0,0E0,0E0,0E0,0E0,0E0,0E0,0E0,0E0,0E0,0E0,0E0,0E0,0E0,0E0,0E0,0E0,0E0,0E0,0E0,0E0,0E0,0E0,0E0,0E0,0E0],"parents":[2147483647,0,0,1,1,2,2,3,3,4,4,5,5,6,6,7,7,8,8,9,9,10,10,11,11,12,12,13,13,14,14,15,15,17,17,19,19,21,21,22,22,23,23,24,24,25,25,26,26,27,27,28,28,29,29,30,30,31,31,32,32,33,33,34,34,35,35,36,36,37,37,38,38,39,39,40,40,41,41,42,42,43,43,44,44,45,45,46,46,47,47,48,48,49,49,50,50,51,51,52,52,53,53,54,54,55,55,56,56,57,57,58,58,60,60,61,61,62,62,63,63,64,64,65,65,66,66,67,67,68,68,69,69,70,70,73,73,74,74,75,75,76,76,77,77,78,78,79,79,81,81,82,82,83,83,84,84,85,85,88,88,89,89,90,90,93,93,94,94,95,95,96,96,97,97,98,98,99,99,100,100,101,101,102,102,103,103,104,104,107,107,119,119,123,123,124,124,125,125,126,126,128,128,129,129,131,131,132,132,133,133,134,134,135,135,136,136,138,138,139,139,140,140,142,142,144,144,147,147,148,148,155,155,156,156,157,157,158,158,161,161,162,162,164,164,167,167,172,172,173,173,174,174,175,175,176,176,177,177,181,181,182,182,183,183,184,184,185,185,186,186,187,187,190,190],"right_children":[2,4,6,8,10,12,14,16,18,20,22,24,26,28,30,32,-1,34,-1,36,-1,38,40,42,44,46,48,50,52,54,56,58,60,62,64,66,68,70,72,74,76,78,80,82,84,86,88,90,92,94,96,98,100,102,104,106,108,110,112,-1,114,116,118,120,122,124,126,128,130,132,134,-1,-1,136,138,140,142,144,146,148,-1,150,152,154,156,158,-1,-1,160,162,164,-1,-1,166,168,170,172,174,176,178,180,182,184,186,188,-1,-1,190,-1,-1,-1,-1,-1,-1,-1,-1,-1,-1,-1,192,-1,-1,-1,194,196,198,200,-1,202,204,-1,206,208,210,212,214,216,-1,218,220,222,-1,224,-1,226,-1,-1,228,230,-1,-1,-1,-1,-1,-1,232,234,236,238,-1,-1,240,242,-1,244,-1,-1,246,-1,-1,-1,-1,248,250,252,254,256,258,-1,-1,-1,260,262,264,266,268,270,272,-1,-1,274,-1,-1,-1,-1,-1,-1,-1,-1,-1,-1,-1,-1,-1,-1,-1,-1,-1,-1,-1,-1,-1,-1,-1,-1,-1,-1,-1,-1,-1,-1,-1,-1,-1,-1,-1,-1,-1,-1,-1,-1,-1,-1,-1,-1,-1,-1,-1,-1,-1,-1,-1,-1,-1,-1,-1,-1,-1,-1,-1,-1,-1,-1,-1,-1,-1,-1,-1,-1,-1,-1,-1,-1,-1,-1,-1,-1,-1,-1,-1,-1,-1,-1,-1,-1],"split_conditions":[3E0,1.6168928E-1,4.85587E-1,-1.7925169E-1,5.6383806E-1,1.6168928E-1,9.974141E-1,1.1355499E-1,1.1355499E-1,1.1355499E-1,8.570628E-1,1E0,4E0,4E0,1.1355499E-1,1E0,-6.9059655E-2,8.981176E-1,-6.2571585E-2,1E0,-5.607092E-2,1.1355499E-1,1E0,4E0,-1.7925169E-1,3.8297176E-1,1.1355499E-1,1E0,1.1355499E-1,1.3122189E0,4E0,8.981176E-1,-7.1043015E-1,1E0,1E0,2.2866008E-1,2.2866008E-1,1E0,1E0,8.981176E-1,1.1355499E-1,-1.7925169E-1,1.1355499E-1,1.1355499E-1,4E0,1E0,1E0,1E0,2.9968184E-1,8.1538224E-1,6.7294276E-1,6.864973E-1,1E0,4E0,1E0,1.0120021E0,1.38617E0,-7.1043015E-1,-7.1043015E-1,-6.419765E-2,8.981176E-1,-1.6709332E-1,-1.6709332E-1,-1.161684E-1,-1.6709332E-1,8.981176E-1,8.981176E-1,8.981176E-1,8.981176E-1,8.981176E-1,6.519667E-1,-4.392149E-2,-5.959915E-2,1.1984856E0,9.430108E-1,8.981176E-1,1.0924771E0,-7.1043015E-1,-1.6709332E-1,-1.7925169E-1,-3.7843578E-2,8.981176E-1,4E0,1.1355499E-1,1.1355499E-1,2.2866008E-1,2.964876E-2,6.80572E-2,8.981176E-1,2.2866008E-1,2.2866008E-1,-3.172935E-2,-1.52218705E-2,7.797868E-1,9.430108E-1,6.2305665E-1,6.864973E-1,1E0,1E0,8.6714494E-1,6.864973E-1,1E0,1E0,1.38617E0,1.4444925E0,8.119891E-2,1.0842717E-1,1E0,1.980512E-2,-5.4705113E-2,-4.9691256E-2,-5.9216626E-2,-5.408302E-2,-5.475783E-2,-5.8681972E-2,-4.1406136E-2,-3.7703406E-2,-4.7494065E-2,-4.1866746E-2,2E0,-4.29672E-2,-5.2909847E-2,-4.779209E-2,2E0,2E0,2E0,2E0,-4.0818833E-2,2E0,2E0,-3.768832E-2,6.2305665E-1,6.864973E-1,8.981176E-1,8.981176E-1,1.1355499E-1,1.1355499E-1,-6.5211738E-3,1.38617E0,8.6714494E-1,9.430108E-1,-4.730701E-2,1.2159601E0,-4.8671565E-3,8.981176E-1,2.5550112E-2,3.8270205E-2,8.981176E-1,8.981176E-1,-1.0641095E-2,-1.4273365E-2,-1.46723455E-2,-5.675924E-2,1.227454E-2,5.594014E-3,8.981176E-1,-1.6709332E-1,1.1355499E-1,1.1355499E-1,4.6672698E-2,6.460359E-2,8.981176E-1,2.9968184E-1,1.3133878E-2,8.981176E-1,7.767444E-2,-5.597016E-2,8.981176E-1,-5.597016E-2,5.1941197E-2,-4.390244E-2,8.334373E-2,7.7252334E-1,6.2305665E-1,8.981176E-1,7.797868E-1,8.981176E-1,6.864973E-1,-2.120264E-2,-3.622899E-2,-1.954249E-2,8.981176E-1,1.2159601E0,1.0120021E0,1.0924771E0,4E0,8.981176E-1,4E0,7.847848E-2,-3.0090602E-3,1.0120021E0,-3.218152E-2,-4.7716763E-2,-1.81334E-2,-3.1176819E-2,-1.5214212E-2,-3.851679E-2,-7.599571E-3,-2.4815468E-2,-1.5781045E-2,-3.0599443E-2,-2.954413E-2,-4.412775E-2,-1.4019682E-2,-3.326158E-2,-1.3451618E-2,-5.6787245E-3,-2.0970365E-2,-1.0988246E-2,-2.5916932E-2,-3.2588374E-2,-1.4108576E-2,-2.1407332E-2,5.4217246E-3,-9.394032E-3,2.1255614E-2,-2.27159E-2,2.9715963E-3,-9.9549405E-3,-1.4996988E-2,-1.9477882E-3,-2.252437E-2,-1.1479673E-2,1.0636363E-1,-2.892377E-2,1.6550047E-2,9.472703E-3,7.0313113E-3,-3.6691565E-3,1.5502745E-2,1.1817707E-2,5.9116576E-3,-8.7272393E-4,-4.786059E-2,-3.2374106E-2,4.748523E-2,3.5318118E-2,5.228284E-2,7.5131476E-2,3.0163506E-2,2.138959E-2,3.0907933E-2,3.5252057E-2,2.6022583E-2,1.7499529E-2,1.0623743E-1,9.128975E-2,-6.1855674E-2,6.602725E-2,4.463731E-2,5.2299704E-2,3.9647557E-2,3.0503472E-2,5.6476396E-2,6.3924685E-2,5.0693043E-2,4.112115E-2,-1.46750575E-2,4.525702E-3,1.2653197E-1,1.0578553E-1,9.012376E-2,-4.666667E-2,7.000129E-2,7.831933E-2,5.5835105E-2,7.09134E-2,1.19075954E-1,8.92317E-2,1.024344E-1,9.494489E-2,9.654029E-2,6.597445E-2,4.3658536E-2,2.6579995E-3],"split_indices":[0,1,1,1,1,1,1,5,5,5,1,3,0,0,5,3,0,4,0,3,0,5,3,0,1,1,5,3,5,1,0,4,1,3,3,1,1,3,3,4,5,1,5,5,0,3,3,3,1,1,1,1,3,0,3,1,1,1,1,0,4,1,1,1,1,4,4,4,4,4,1,0,0,1,1,4,1,1,1,1,0,4,0,5,5,1,0,0,4,1,1,0,0,1,1,1,1,3,3,1,1,3,3,1,1,0,0,3,0,0,0,0,0,0,0,0,0,0,0,0,0,0,0,0,0,0,0,0,0,0,0,1,1,4,4,5,5,0,1,1,1,0,1,0,4,0,0,4,4,0,0,0,0,0,0,4,1,5,5,0,0,4,1,0,4,0,0,4,0,0,0,0,1,1,4,1,4,1,0,0,0,4,1,1,1,0,4,0,0,0,1,0,0,0,0,0,0,0,0,0,0,0,0,0,0,0,0,0,0,0,0,0,0,0,0,0,0,0,0,0,0,0,0,0,0,0,0,0,0,0,0,0,0,0,0,0,0,0,0,0,0,0,0,0,0,0,0,0,0,0,0,0,0,0,0,0,0,0,0,0,0,0,0,0,0,0,0,0,0,0,0,0,0,0,0],"split_type":[0,0,0,0,0,0,0,0,0,0,0,0,0,0,0,0,0,0,0,0,0,0,0,0,0,0,0,0,0,0,0,0,0,0,0,0,0,0,0,0,0,0,0,0,0,0,0,0,0,0,0,0,0,0,0,0,0,0,0,0,0,0,0,0,0,0,0,0,0,0,0,0,0,0,0,0,0,0,0,0,0,0,0,0,0,0,0,0,0,0,0,0,0,0,0,0,0,0,0,0,0,0,0,0,0,0,0,0,0,0,0,0,0,0,0,0,0,0,0,0,0,0,0,0,0,0,0,0,0,0,0,0,0,0,0,0,0,0,0,0,0,0,0,0,0,0,0,0,0,0,0,0,0,0,0,0,0,0,0,0,0,0,0,0,0,0,0,0,0,0,0,0,0,0,0,0,0,0,0,0,0,0,0,0,0,0,0,0,0,0,0,0,0,0,0,0,0,0,0,0,0,0,0,0,0,0,0,0,0,0,0,0,0,0,0,0,0,0,0,0,0,0,0,0,0,0,0,0,0,0,0,0,0,0,0,0,0,0,0,0,0,0,0,0,0,0,0,0,0,0,0,0,0,0,0,0,0,0,0,0,0,0,0,0,0,0,0,0,0,0,0,0,0,0,0],"sum_hessian":[6.083398E5,4.0365266E5,2.0468719E5,2.8029266E5,1.2335999E5,1.0026359E5,1.0442359E5,1.4786612E5,1.3242653E5,8.3808125E4,3.9551863E4,4.9611195E4,5.06524E4,6.154426E4,4.2879332E4,1.347728E5,1.3093333E4,1.2438266E5,8.043866E3,8.02704E4,3.5377332E3,2.9774266E4,9.7776E3,2.8604398E4,2.1006799E4,7.520666E3,4.313173E4,5.633733E3,5.591053E4,4.1485465E4,1.3938666E3,5.466013E4,8.0112664E4,5.685093E4,6.753173E4,5.1571062E4,2.8699332E4,2.8586531E4,1.1877333E3,7.0494663E3,2.728133E3,7.4439995E3,2.1160398E4,7.793733E3,1.3213065E4,5.0062666E3,2.5144E3,4.167053E4,1.4612E3,3.9234666E3,1.7102666E3,5.43664E4,1.5441333E3,2.3224531E4,1.8260932E4,2.5493332E2,1.1389332E3,2.3519598E4,3.1140531E4,1.1143333E4,6.896933E4,3.0889598E4,2.5961332E4,3.690693E4,3.0624799E4,2.2972666E4,2.8598398E4,1.3898266E4,1.4801065E4,1.9616398E4,8.970133E3,7.546666E2,4.3306665E2,3.9202664E3,3.1291997E3,2.6012E3,1.2693333E2,2.9884E3,4.4555996E3,2.00772E4,1.0832E3,6.402266E3,1.3914666E3,4.1715996E3,9.041466E3,3.0199998E3,1.9862666E3,1.6330665E3,8.8133325E2,2.9804266E4,1.1866266E4,9.4386664E2,5.173333E2,3.074133E3,8.493333E2,8.2839996E2,8.8186664E2,3.1864266E4,2.2502133E4,1.1433333E3,4.008E2,1.1529332E3,2.20716E4,1.5895199E4,2.3657332E3,7.2399994E1,1.8253333E2,8.354666E2,3.0346664E2,2.7378665E3,2.0781732E4,3.8438665E3,2.7296666E4,3.0118531E4,3.8850797E4,1.6522398E4,1.4367199E4,1.5402399E4,1.0558933E4,2.02536E4,1.6653332E4,1.8526932E4,1.2097866E4,1.0850532E4,1.2122133E4,1.4234133E4,1.4364266E4,6.5050664E3,7.3931997E3,7.3543994E3,7.446666E3,1.0033466E4,9.582933E3,5.8851997E3,3.084933E3,3.142133E3,7.781333E2,1.5247999E3,1.6043999E3,1.2997333E3,1.3014666E3,1.10399994E2,1.6533333E1,2.8253333E2,2.7058665E3,2.3954666E3,2.0601333E3,4.6990664E3,1.5378133E4,2.7412E3,3.6610664E3,1.1739999E3,2.1746666E2,3.1518665E3,1.0197333E3,8.595066E3,4.4639996E2,1.7818666E3,1.2381333E3,4.7786664E2,4.0346664E2,1.00348E4,1.9769465E4,4.4044E3,7.461866E3,3.0706665E3,3.4666665E0,8.4586664E2,3.4666665E0,8.266666E2,1.7333332E0,3.1959998E2,5.6226666E2,2.42292E4,7.6350664E3,1.8075332E4,4.4268E3,9.4199994E2,2.0133333E2,2.4879999E2,1.5199998E2,8.7719995E2,2.757333E2,1.8271732E4,3.7998665E3,6.3995996E3,9.4956E3,1.0859999E3,1.2797333E3,6.836E2,1.5186665E2,2.3919998E2,2.0014398E4,1.4293332E2,1.07076E4,1.8106665E2,1.1941066E4,2.4506665E2,1.3989065E4,2.4866666E2,1.41156E4,1.1306666E2,7.280133E3,9.386666E1,7.2605327E3,6.341733E3,3.6917332E3,8.2516E3,1.3313333E3,2.9345332E3,2.9506665E3,1.6065332E3,1.4783999E3,2.9131997E3,2.2893332E2,7.2586664E2,5.2266663E1,1.4426666E3,1.6173332E2,3.304E2,9.6933325E2,6.3519995E2,6.662666E2,2.6666665E0,1.3866666E1,1.5234666E3,1.1823999E3,2.4025332E3,2.2965332E3,8.1839995E3,7.194133E3,4.608533E3,3.9865332E3,2.3426665E2,2.1213332E2,1.3417333E3,4.401333E2,9.729333E2,2.6519998E2,5.4910664E3,4.543733E3,7.644933E3,1.2124532E4,4.2610664E3,3.2007998E3,4.297333E2,4.161333E2,5.466666E0,5.568E2,1.64292E4,7.7999995E3,4.4819995E3,3.1530664E3,6.2766665E3,1.1798666E4,2.6058665E3,1.8209332E3,6.668E2,2.7519998E2,3.9826663E2,4.7893332E2,2.737333E2,1.9999999E0,6.729733E3,1.1541999E4,2.6593333E3,1.1405333E3,1.8946666E2,6.210133E3,5.534933E3,3.9606665E3,6.933333E1,1.0166666E3,3.9999996E1,1.1186666E2],"tree_param":{"num_deleted":"0","num_feature":"7","num_nodes":"275","size_leaf_vector":"1"}},{"base_weights":[1.7090295E-2,2.590739E-1,-2.7809778E-1,4.1723865E-1,1.01098E-1,-1.3356526E-1,-4.1487554E-1,3.1460515E-1,4.8970783E-1,3.518393E-2,1.834403E-1,-6.198045E-2,-1.856635E-1,-3.262775E-1,-5.123829E-1,2.4342398E-1,4.643447E-1,4.6541443E-1,7.135359E-1,-9.002206E-3,2.0544958E-1,2.322663E-1,1.14236735E-1,-1.0999388E-1,2.2358954E-2,-2.2018826E-1,-1.1277604E-1,-3.3947143E-1,-3.732876E-2,-5.2115554E-1,-2.6917514E-1,2.1729474E-1,5.2045757E-1,4.360323E-1,6.654034E-1,6.1377037E-1,4.4194224E-1,8.893393E-2,6.849502E-2,-2.522133E-2,2.3970325E-2,1.814035E-1,4.3369895E-1,2.1467425E-1,4.4076648E-2,1.0229141E-1,2.90313E-2,-1.4155671E-1,7.459797E-2,5.882473E-3,2.904723E-2,-2.4278063E-1,-4.3355025E-2,-1.2679729E-1,1.4092155E-2,-3.7056014E-1,-2.5618127E-1,-1.06403984E-1,1.058887E-1,-4.7256833E-1,-5.630272E-1,-2.9154503E-1,-1.9000162E-1,1.6333708E-1,2.603379E-1,6.959306E-2,4.94333E-2,6.107384E-1,4.0974563E-1,8.582958E-2,6.300169E-2,5.700429E-2,6.4448774E-2,3.9711475E-2,4.7652833E-2,2.271747E-2,-7.450139E-2,1.07553E-1,2.3685227E-1,4.8481517E-2,3.534441E-2,1.6524753E-2,2.5597105E-2,7.590104E-3,1.2561818E-2,-1.5212476E-1,7.596653E-3,5.3958718E-2,3.3617985E-2,-2.5778343E-3,3.6134894E-3,-2.5109795E-1,-5.821246E-3,-5.4327413E-2,1.2409623E-1,-1.62103E-2,-8.944534E-2,-3.837601E-1,-2.2293538E-1,-2.974119E-1,-2.085757E-1,-1.3780344E-1,8.3387926E-2,1.5087575E-1,2.7842105E-3,-4.9287495E-1,-3.9684668E-1,-5.775714E-1,-4.841518E-1,-1.5314674E-1,-3.1382784E-2,-2.3214694E-2,-7.187422E-5,2.5569618E-2,1.5130444E-2,4.0495016E-2,2.4096986E-2,5.7183027E-2,6.364774E-2,3.5550546E-2,4.4677354E-2,-9.4024243E-4,5.074535E-3,-1.0840942E-2,-4.349222E-3,1.4209506E-2,5.9067504E-3,2.8977854E-2,1.6003972E-2,-1.8072255E-2,-1.2356155E-2,1.1837087E-3,8.5090725E-3,-2.6508415E-1,-2.3547037E-2,-1.05664525E-2,-9.167446E-4,3.217212E-2,-4.068011E-3,-5.444864E-3,-1.1981141E-2,-4.1465116E-1,-3.4460422E-1,-2.534594E-2,-1.9245144E-2,-2.8413016E-1,-3.670982E-1,-1.8614805E-1,-3.4243017E-2,-1.2075051E-2,-2.1326808E-2,6.0122632E-3,1.1612511E-1,1.4391224E-2,1.1143062E-1,-4.99659E-1,-3.748126E-2,-4.3282044E-1,-3.5320923E-2,-5.8311397E-1,-4.186101E-1,-5.182566E-2,-4.398972E-2,-2.0243384E-2,2.4569968E-2,-2.3437439E-2,-2.877227E-2,-3.840172E-2,-4.5459397E-2,-3.1766642E-2,-3.813585E-2,-2.844879E-2,9.108587E-2,-3.6909785E-2,9.459526E-2,-1.8651757E-2,8.49221E-2,-5.18592E-2,-4.731017E-2,-3.8329586E-2,-4.5416124E-2,-5.9932202E-2,-5.606223E-2,-4.9905147E-2,-3.7528444E-2],"categories":[],"categories_nodes":[],"categories_segments":[],"categories_sizes":[],"default_left":[0,0,0,0,0,0,0,0,0,0,0,0,0,0,0,0,0,0,0,0,0,0,0,0,0,0,0,0,0,0,0,0,0,0,0,0,0,0,0,0,0,0,0,0,0,0,0,0,0,0,0,0,0,0,0,0,0,0,0,0,0,0,0,0,0,0,0,0,0,0,0,0,0,0,0,0,0,0,0,0,0,0,0,0,0,0,0,0,0,0,0,0,0,0,0,0,0,0,0,0,0,0,0,0,0,0,0,0,0,0,0,0,0,0,0,0,0,0,0,0,0,0,0,0,0,0,0,0,0,0,0,0,0,0,0,0,0,0,0,0,0,0,0,0,0,0,0,0,0,0,0,0,0,0,0,0,0,0,0,0,0,0,0,0,0,0,0,0,0,0,0,0,0,0,0,0,0,0,0,0,0,0,0,0,0],"id":3,"left_children":[1,3,5,7,9,11,13,15,17,19,21,23,25,27,29,31,33,35,37,39,41,43,45,47,49,51,53,55,57,59,61,63,65,67,69,71,73,-1,-1,75,-1,77,79,81,-1,83,-1,85,87,89,-1,91,93,95,-1,97,99,101,103,105,107,109,111,113,115,-1,-1,117,119,-1,-1,-1,-1,-1,-1,121,123,125,127,-1,-1,-1,-1,-1,-1,129,-1,131,-1,-1,-1,133,-1,135,137,-1,139,141,143,145,147,149,151,153,-1,155,157,159,161,163,-1,-1,-1,-1,-1,-1,-1,-1,-1,-1,-1,-1,-1,-1,-1,-1,-1,-1,-1,-1,-1,-1,-1,165,-1,-1,-1,-1,-1,-1,-1,167,169,-1,-1,171,173,175,-1,-1,-1,-1,-1,-1,-1,177,-1,179,-1,181,183,-1,-1,-1,-1,-1,-1,-1,-1,-1,-1,-1,-1,-1,-1,-1,-1,-1,-1,-1,-1,-1,-1,-1,-1],"loss_changes":[4.3435027E4,8.349049E3,5.4150215E3,1.2416816E3,9.073242E2,4.9667944E2,1.2155605E3,7.3641895E2,5.317051E2,6.9858594E2,2.5107764E2,2.2720053E2,1.9391895E2,2.8107422E2,1.4272461E2,3.3890308E2,1.2634473E2,3.0706445E2,4.7376465E1,2.9736093E2,1.0486609E2,1.5967651E2,6.460559E1,2.0831833E2,8.9878784E1,2.08927E2,8.816177E1,1.8244385E2,3.188118E1,1.3118164E2,4.031906E0,9.933887E1,1.8040405E1,8.9293945E1,1.8053955E1,1.5706055E1,1.1791406E2,0E0,0E0,1.6350891E2,0E0,7.082605E1,7.2206726E0,8.19469E1,0E0,1.7698273E1,0E0,7.0207275E1,2.8128754E1,1.8368963E1,0E0,7.115234E1,1.0890226E1,3.0928009E1,0E0,9.991455E1,3.75177E1,1.2974291E1,3.6583967E0,4.5750977E1,3.945117E1,5.5108643E0,4.1107597E0,2.1035461E1,6.652637E1,0E0,0E0,2.069336E0,3.384546E1,0E0,0E0,0E0,0E0,0E0,0E0,3.1587122E1,3.5864883E1,1.2408691E1,4.0097412E1,0E0,0E0,0E0,0E0,0E0,0E0,2.3732605E1,0E0,6.336754E0,0E0,0E0,0E0,9.587402E0,0E0,1.2887133E1,1.190262E1,0E0,1.2106224E1,5.6791016E1,3.8310394E0,9.336182E0,2.6608765E1,2.342781E0,7.5523634E0,4.167926E0,0E0,1.8629395E1,9.716553E0,2.5481445E1,7.846924E0,5.0513034E0,0E0,0E0,0E0,0E0,0E0,0E0,0E0,0E0,0E0,0E0,0E0,0E0,0E0,0E0,0E0,0E0,0E0,0E0,0E0,0E0,0E0,0E0,0E0,1.6154053E1,0E0,0E0,0E0,0E0,0E0,0E0,0E0,3.197168E1,2.0395508E1,0E0,0E0,3.8864746E0,4.595932E0,3.010437E0,0E0,0E0,0E0,0E0,0E0,0E0,0E0,1.0875977E1,0E0,3.4072876E0,0E0,9.873047E0,3.1818085E0,0E0,0E0,0E0,0E0,0E0,0E0,0E0,0E0,0E0,0E0,0E0,0E0,0E0,0E0,0E0,0E0,0E0,0E0,0E0,0E0,0E0,0E0,0E0,0E0],"parents":[2147483647,0,0,1,1,2,2,3,3,4,4,5,5,6,6,7,7,8,8,9,9,10,10,11,11,12,12,13,13,14,14,15,15,16,16,17,17,18,18,19,19,20,20,21,21,22,22,23,23,24,24,25,25,26,26,27,27,28,28,29,29,30,30,31,31,32,32,33,33,34,34,35,35,36,36,39,39,41,41,42,42,43,43,45,45,47,47,48,48,49,49,51,51,52,52,53,53,55,55,56,56,57,57,58,58,59,59,60,60,61,61,62,62,63,63,64,64,67,67,68,68,75,75,76,76,77,77,78,78,85,85,87,87,91,91,93,93,94,94,96,96,97,97,98,98,99,99,100,100,101,101,102,102,103,103,105,105,106,106,107,107,108,108,109,109,133,133,141,141,142,142,145,145,146,146,147,147,155,155,157,157,159,159,160,160],"right_children":[2,4,6,8,10,12,14,16,18,20,22,24,26,28,30,32,34,36,38,40,42,44,46,48,50,52,54,56,58,60,62,64,66,68,70,72,74,-1,-1,76,-1,78,80,82,-1,84,-1,86,88,90,-1,92,94,96,-1,98,100,102,104,106,108,110,112,114,116,-1,-1,118,120,-1,-1,-1,-1,-1,-1,122,124,126,128,-1,-1,-1,-1,-1,-1,130,-1,132,-1,-1,-1,134,-1,136,138,-1,140,142,144,146,148,150,152,154,-1,156,158,160,162,164,-1,-1,-1,-1,-1,-1,-1,-1,-1,-1,-1,-1,-1,-1,-1,-1,-1,-1,-1,-1,-1,-1,-1,166,-1,-1,-1,-1,-1,-1,-1,168,170,-1,-1,172,174,176,-1,-1,-1,-1,-1,-1,-1,178,-1,180,-1,182,184,-1,-1,-1,-1,-1,-1,-1,-1,-1,-1,-1,-1,-1,-1,-1,-1,-1,-1,-1,-1,-1,-1,-1,-1],"split_conditions":[1.6168928E-1,-1.7925169E-1,5.6383806E-1,1E0,1E0,2.7810612E-1,8.6024374E-1,5.710926E-1,1.1355499E-1,5.710926E-1,-1.6709332E-1,1E0,1E0,1.1355499E-1,1.1355499E-1,1E0,1.1355499E-1,-7.1043015E-1,-7.1043015E-1,1.1355499E-1,1.1355499E-1,1.1355499E-1,1.1355499E-1,5.710926E-1,1.1355499E-1,5.710926E-1,1.1355499E-1,1E0,1E0,1.0120021E0,1E0,8.981176E-1,-7.1043015E-1,-7.1043015E-1,-7.1043015E-1,8.981176E-1,8.981176E-1,8.893393E-2,6.849502E-2,-1.6709332E-1,2.3970325E-2,8.981176E-1,1.590438E-2,8.981176E-1,4.4076648E-2,8.981176E-1,2.90313E-2,1.1355499E-1,1.1355499E-1,8.981176E-1,2.904723E-2,1.1355499E-1,1.1355499E-1,8.981176E-1,1.4092155E-2,5.710926E-1,8.981176E-1,5.710926E-1,6.7294276E-1,1E0,1E0,8.6714494E-1,1.2728996E0,-7.1043015E-1,-7.1043015E-1,6.959306E-2,4.94333E-2,8.981176E-1,8.981176E-1,8.582958E-2,6.300169E-2,5.700429E-2,6.4448774E-2,3.9711475E-2,4.7652833E-2,8.981176E-1,8.981176E-1,-1.6709332E-1,-1.6709332E-1,4.8481517E-2,3.534441E-2,1.6524753E-2,2.5597105E-2,7.590104E-3,1.2561818E-2,8.981176E-1,7.596653E-3,8.981176E-1,3.3617985E-2,-2.5778343E-3,3.6134894E-3,8.981176E-1,-5.821246E-3,8.981176E-1,2.9968184E-1,-1.62103E-2,2.9968184E-1,8.981176E-1,8.981176E-1,7.7252334E-1,7.221865E-1,6.864973E-1,8.428199E-1,6.2305665E-1,2.7842105E-3,5.710926E-1,8.981176E-1,5.710926E-1,8.981176E-1,5.710926E-1,-3.1382784E-2,-2.3214694E-2,-7.187422E-5,2.5569618E-2,1.5130444E-2,4.0495016E-2,2.4096986E-2,5.7183027E-2,6.364774E-2,3.5550546E-2,4.4677354E-2,-9.4024243E-4,5.074535E-3,-1.0840942E-2,-4.349222E-3,1.4209506E-2,5.9067504E-3,2.8977854E-2,1.6003972E-2,-1.8072255E-2,-1.2356155E-2,1.1837087E-3,8.5090725E-3,2.9968184E-1,-2.3547037E-2,-1.05664525E-2,-9.167446E-4,3.217212E-2,-4.068011E-3,-5.444864E-3,-1.1981141E-2,6.2305665E-1,6.6690606E-1,-2.534594E-2,-1.9245144E-2,6.864973E-1,7.797868E-1,6.864973E-1,-3.4243017E-2,-1.2075051E-2,-2.1326808E-2,6.0122632E-3,1.1612511E-1,1.4391224E-2,1.1143062E-1,8.981176E-1,-3.748126E-2,8.6714494E-1,-3.5320923E-2,8.981176E-1,1.1984856E0,-5.182566E-2,-4.398972E-2,-2.0243384E-2,2.4569968E-2,-2.3437439E-2,-2.877227E-2,-3.840172E-2,-4.5459397E-2,-3.1766642E-2,-3.813585E-2,-2.844879E-2,9.108587E-2,-3.6909785E-2,9.459526E-2,-1.8651757E-2,8.49221E-2,-5.18592E-2,-4.731017E-2,-3.8329586E-2,-4.5416124E-2,-5.9932202E-2,-5.606223E-2,-4.9905147E-2,-3.7528444E-2],"split_indices":[1,1,1,3,3,1,1,2,5,2,1,3,3,5,5,5,5,1,1,5,5,5,5,2,5,2,5,3,3,1,3,4,1,1,1,4,4,0,0,1,0,4,1,4,0,4,0,5,5,4,0,5,5,4,0,2,4,2,1,3,3,1,1,1,1,0,0,4,4,0,0,0,0,0,0,4,4,1,1,0,0,0,0,0,0,4,0,4,0,0,0,4,0,4,1,0,1,4,4,1,1,1,1,1,0,2,4,2,4,2,0,0,0,0,0,0,0,0,0,0,0,0,0,0,0,0,0,0,0,0,0,0,0,1,0,0,0,0,0,0,0,1,1,0,0,1,1,1,0,0,0,0,0,0,0,4,0,1,0,4,1,0,0,0,0,0,0,0,0,0,0,0,0,0,0,0,0,0,0,0,0,0,0,0,0],"split_type":[0,0,0,0,0,0,0,0,0,0,0,0,0,0,0,0,0,0,0,0,0,0,0,0,0,0,0,0,0,0,0,0,0,0,0,0,0,0,0,0,0,0,0,0,0,0,0,0,0,0,0,0,0,0,0,0,0,0,0,0,0,0,0,0,0,0,0,0,0,0,0,0,0,0,0,0,0,0,0,0,0,0,0,0,0,0,0,0,0,0,0,0,0,0,0,0,0,0,0,0,0,0,0,0,0,0,0,0,0,0,0,0,0,0,0,0,0,0,0,0,0,0,0,0,0,0,0,0,0,0,0,0,0,0,0,0,0,0,0,0,0,0,0,0,0,0,0,0,0,0,0,0,0,0,0,0,0,0,0,0,0,0,0,0,0,0,0,0,0,0,0,0,0,0,0,0,0,0,0,0,0,0,0,0,0],"sum_hessian":[6.0807056E5,3.3414888E5,2.739217E5,1.669735E5,1.6717538E5,1.3318662E5,1.4073506E5,6.910755E4,9.7865945E4,9.285147E4,7.43239E4,5.610311E4,7.7083516E4,7.373904E4,6.699603E4,4.6843168E4,2.226438E4,8.828715E4,9.578795E3,7.372043E4,1.9131043E4,4.357566E4,3.0748242E4,3.5751234E4,2.0351875E4,5.23048E4,2.4778713E4,7.051851E4,3.220528E3,6.4662082E4,2.333945E3,4.280777E4,4.0353984E3,1.9519393E4,2.7449883E3,1.2056251E4,7.62309E4,1.3349829E3,8.243812E3,6.920836E4,4.5120664E3,1.73097E4,1.8213445E3,4.0187387E4,3.388274E3,2.8796768E4,1.9514749E3,3.0531514E4,5.2197197E3,1.9174906E4,1.1769686E3,4.6378504E4,5.926297E3,2.3481824E4,1.2968884E3,5.134788E4,1.9170633E4,2.1732856E3,1.0472423E3,2.9937596E4,3.472449E4,1.8167034E3,5.172416E2,1.899869E4,2.380908E4,5.1912054E2,3.516278E3,2.5494226E3,1.696997E4,4.2146988E2,2.3235183E3,4.9840576E3,7.072193E3,3.3206645E4,4.3024254E4,3.5080836E4,3.4127527E4,7.425135E3,9.884563E3,1.1088226E3,7.1252185E2,1.8296434E4,2.1890953E4,1.3515151E4,1.5281616E4,2.9117635E4,1.4138778E3,4.8394663E3,3.8025354E2,9.367816E3,9.807091E3,4.4377773E4,2.0007311E3,5.5630464E3,3.6325064E2,1.2068474E4,1.1413352E4,4.713132E4,4.216558E3,1.0269226E4,8.901406E3,1.8654618E3,3.0782397E2,6.629152E2,3.843271E2,2.3601453E4,6.336141E3,2.9311924E4,5.4125635E3,2.5364943E2,1.563054E3,4.2242957E2,9.4812004E1,2.1865808E3,1.681211E4,2.8091758E3,2.0999904E4,1.025833E3,1.5235895E3,6.8901953E3,1.0079774E4,1.6345742E4,1.8735094E4,1.6299051E4,1.7828477E4,4.333714E3,3.091421E3,5.8497964E3,4.0347676E3,1.45456E4,1.4572036E4,2.0586729E3,2.7807935E3,2.3406945E4,2.0970826E4,2.6018042E3,2.9612424E3,1.6500539E2,1.9824525E2,5.3052134E3,6.108138E3,2.6339373E4,2.0791947E4,2.1016E3,2.114958E3,8.630772E3,1.6384536E3,7.626675E3,1.2747313E3,1.5248197E3,3.4064212E2,3.0244437E2,5.3795996E0,6.5940234E2,3.5128727E0,2.2315115E4,1.2863387E3,3.4668967E3,2.8692444E3,2.8321143E4,9.90781E2,3.0494983E3,2.363065E3,2.2641373E2,2.7235697E1,9.939518E3,1.3467429E4,1.4914138E4,1.1425235E4,1.2005374E4,8.786573E3,8.629034E3,1.7376006E0,1.6367562E3,1.6974945E0,7.62487E3,1.8048797E0,1.3014587E4,9.300528E3,1.0511617E3,2.415735E3,1.6442318E4,1.1878824E4,3.42341E2,6.4844E2],"tree_param":{"num_deleted":"0","num_feature":"7","num_nodes":"185","size_leaf_vector":"1"}},{"base_weights":[1.2680733E-1,1.6440149E-1,5.196885E-2,1.8161939E-1,-8.44255E-2,1.7571151E-2,1.4082907E-1,2.3651841E-1,1.1914859E-1,-1.9971754E-2,-1.4418964E-1,-5.3854445E-3,2.4353555E-1,1.3154942E-1,2.3815567E-2,2.5728342E-1,1.5614387E-1,1.5080139E-1,9.2922695E-2,3.2794569E-3,-1.3398716E-2,5.6110616E-3,-1.4676851E-2,-1.2289327E-2,1.2583998E-1,2.3409778E-1,3.1381276E-1,1.8288447E-1,1.1872004E-1,2.6423302E-1,2.5093633E-1,1.7524308E-2,1.4214928E-2,2.4750924E-2,1.4984243E-2,1.909978E-2,9.187522E-3,-5.358187E-2,-8.350235E-3,-1.312662E-3,2.3998542E-2,2.1382551E-1,2.5283923E-2,3.4541067E-2,2.6322667E-2,1.6174266E-2,1.9586911E-2,1.03335455E-2,1.3825865E-2,3.106004E-2,2.6356984E-2,3.0010274E-2,2.5016436E-2,-7.8102364E-3,-3.8636446E-3,-1.8531237E-3,5.745024E-4,2.630952E-2,2.0588435E-2],"categories":[],"categories_nodes":[],"categories_segments":[],"categories_sizes":[],"default_left":[0,0,0,0,0,0,0,0,0,0,0,0,0,0,0,0,0,0,0,0,0,0,0,0,0,0,0,0,0,0,0,0,0,0,0,0,0,0,0,0,0,0,0,0,0,0,0,0,0,0,0,0,0,0,0,0,0,0,0],"id":4,"left_children":[1,3,5,7,9,11,13,15,17,19,21,23,25,27,-1,29,31,33,35,-1,-1,-1,-1,37,39,41,43,45,47,49,51,-1,-1,-1,-1,-1,-1,53,55,-1,-1,57,-1,-1,-1,-1,-1,-1,-1,-1,-1,-1,-1,-1,-1,-1,-1,-1,-1],"loss_changes":[1.7225889E3,1.7460586E3,6.2574994E2,1.3071904E3,1.01580795E2,7.656615E2,5.1531494E1,3.385166E2,1.4796631E2,7.637161E1,7.086151E0,1.21375694E2,8.900269E0,3.4302185E1,0E0,6.9941406E0,1.1077454E1,7.414917E0,9.971497E0,0E0,0E0,0E0,0E0,2.0697674E1,1.0624203E2,4.4608154E0,2.4175568E0,2.7947693E0,1.2507568E1,2.2260742E0,3.0688477E0,0E0,0E0,0E0,0E0,0E0,0E0,4.04685E0,1.6677649E1,0E0,0E0,2.1589966E0,0E0,0E0,0E0,0E0,0E0,0E0,0E0,0E0,0E0,0E0,0E0,0E0,0E0,0E0,0E0,0E0,0E0],"parents":[2147483647,0,0,1,1,2,2,3,3,4,4,5,5,6,6,7,7,8,8,9,9,10,10,11,11,12,12,13,13,15,15,16,16,17,17,18,18,23,23,24,24,25,25,26,26,27,27,28,28,29,29,30,30,37,37,38,38,41,41],"right_children":[2,4,6,8,10,12,14,16,18,20,22,24,26,28,-1,30,32,34,36,-1,-1,-1,-1,38,40,42,44,46,48,50,52,-1,-1,-1,-1,-1,-1,54,56,-1,-1,58,-1,-1,-1,-1,-1,-1,-1,-1,-1,-1,-1,-1,-1,-1,-1,-1,-1],"split_conditions":[3E0,1.1355499E-1,1E0,1E0,1E0,1E0,1.1355499E-1,5.710926E-1,8.981176E-1,5.710926E-1,2E0,1.8140677E-1,1.1355499E-1,4E0,2.3815567E-2,8.981176E-1,8.981176E-1,2E0,2E0,3.2794569E-3,-1.3398716E-2,5.6110616E-3,-1.4676851E-2,4E0,4E0,8.981176E-1,4E0,8.981176E-1,8.981176E-1,2E0,2E0,1.7524308E-2,1.4214928E-2,2.4750924E-2,1.4984243E-2,1.909978E-2,9.187522E-3,8.981176E-1,8.981176E-1,-1.312662E-3,2.3998542E-2,4E0,2.5283923E-2,3.4541067E-2,2.6322667E-2,1.6174266E-2,1.9586911E-2,1.03335455E-2,1.3825865E-2,3.106004E-2,2.6356984E-2,3.0010274E-2,2.5016436E-2,-7.8102364E-3,-3.8636446E-3,-1.8531237E-3,5.745024E-4,2.630952E-2,2.0588435E-2],"split_indices":[0,5,3,3,3,2,5,2,4,2,0,5,5,0,0,4,4,0,0,0,0,0,0,0,0,4,0,4,4,0,0,0,0,0,0,0,0,4,4,0,0,0,0,0,0,0,0,0,0,0,0,0,0,0,0,0,0,0,0],"split_type":[0,0,0,0,0,0,0,0,0,0,0,0,0,0,0,0,0,0,0,0,0,0,0,0,0,0,0,0,0,0,0,0,0,0,0,0,0,0,0,0,0,0,0,0,0,0,0,0,0,0,0,0,0,0,0,0,0,0,0],"sum_hessian":[6.1227025E5,4.0754347E5,2.0472677E5,3.811687E5,2.6374773E4,1.4759516E5,5.713161E4,2.0287702E5,1.7829169E5,1.269097E4,1.3683804E4,1.3398377E5,1.3611394E4,5.2161605E4,4.970001E3,1.6122148E5,4.1655523E4,8.0783336E4,9.750836E4,8.675694E3,4.0152754E3,1.73183E2,1.3510621E4,1.27288664E5,6.6950977E3,1.2004958E4,1.6064357E3,1.0425259E4,4.1736348E4,7.693121E4,8.429028E4,1.7607258E4,2.4048266E4,7.896386E2,7.9993695E4,1.0274863E3,9.648087E4,1.1081892E4,1.1620677E5,3.0192788E3,3.6758188E3,5.7754805E3,6.229477E3,9.839932E2,6.224424E2,3.9747197E3,6.450539E3,2.335678E4,1.8379568E4,1.0761162E3,7.585509E4,1.2950321E3,8.299525E4,4.192488E3,6.8894033E3,6.7475805E4,4.8730973E4,7.9545776E2,4.980023E3],"tree_param":{"num_deleted":"0","num_feature":"7","num_nodes":"59","size_leaf_vector":"1"}},{"base_weights":[-1.4805946E-1,-4.256631E-1,3.7941322E-1,-3.75582E-1,-4.8219672E-1,4.4326392E-1,2.1277975E-1,-3.3925834E-1,-5.1054084E-1,-5.0446796E-1,-4.513829E-1,4.784397E-1,9.377147E-2,1.92764E-1,2.3558529E-1,-3.6594257E-1,-3.024278E-1,-5.250095E-1,-4.9145514E-1,-4.9287133E-2,-5.158392E-1,-4.409285E-1,-4.6132088E-1,5.8034736E-1,4.665556E-1,1.2400758E-1,5.6982066E-2,9.931631E-2,2.2316033E-1,2.8378195E-1,2.2184028E-1,-1.3653228E-1,-3.6923495E-1,-2.8568614E-2,-3.191541E-2,-5.133754E-2,-5.354197E-2,-3.8115587E-2,-4.9272127E-2,-4.331011E-2,-5.1681913E-2,-3.2813143E-2,-4.419365E-2,-3.761864E-2,-4.6219815E-2,5.18443E-1,6.562388E-2,4.910139E-1,4.377973E-2,8.929289E-2,1.3499454E-1,1.454991E-2,2.8845647E-2,1.2023951E-2,7.643502E-3,2.5138436E-2,1.822104E-2,2.6093557E-2,3.0906795E-2,2.3517689E-2,2.0433286E-2,-1.7681198E-2,-9.621906E-3,-3.4149457E-2,-3.9759554E-2,5.187557E-2,-4.529534E-2,5.0428685E-2,4.7080915E-2,4.3981485E-3,1.4630432E-2,1.654945E-2,1.0146463E-2,7.6148533E-3,-1.8349076E-3],"categories":[],"categories_nodes":[],"categories_segments":[],"categories_sizes":[],"default_left":[0,0,0,0,0,0,0,0,0,0,0,0,0,0,0,0,0,0,0,0,0,0,0,0,0,0,0,0,0,0,0,0,0,0,0,0,0,0,0,0,0,0,0,0,0,0,0,0,0,0,0,0,0,0,0,0,0,0,0,0,0,0,0,0,0,0,0,0,0,0,0,0,0,0,0],"id":5,"left_children":[1,3,5,7,9,11,13,15,17,19,21,23,25,27,29,31,33,35,37,-1,39,41,43,45,47,49,51,53,55,57,59,61,63,-1,-1,-1,-1,-1,-1,-1,-1,-1,-1,-1,-1,65,-1,67,-1,69,71,-1,73,-1,-1,-1,-1,-1,-1,-1,-1,-1,-1,-1,-1,-1,-1,-1,-1,-1,-1,-1,-1,-1,-1],"loss_changes":[8.824082E4,1.1175938E3,2.2106973E3,1.0260977E3,1.26953125E2,1.8467461E3,2.6189453E1,1.6195703E2,1.1900391E1,1.3841797E1,7.791992E0,1.6492383E2,1.5257652E1,8.7053345E1,1.7707764E1,7.214844E1,1.925879E1,2.6767578E0,2.4013672E0,0E0,4.086914E0,4.092285E0,2.7207031E0,6.6487305E1,8.567383E1,2.8408813E0,1.5422731E1,3.5758743E0,2.665332E1,3.307953E0,4.796753E0,2.1565723E0,7.398047E1,0E0,0E0,0E0,0E0,0E0,0E0,0E0,0E0,0E0,0E0,0E0,0E0,2.6269531E0,0E0,1.7376953E1,0E0,4.6696663E0,5.8084564E0,0E0,1.0516601E1,0E0,0E0,0E0,0E0,0E0,0E0,0E0,0E0,0E0,0E0,0E0,0E0,0E0,0E0,0E0,0E0,0E0,0E0,0E0,0E0,0E0,0E0],"parents":[2147483647,0,0,1,1,2,2,3,3,4,4,5,5,6,6,7,7,8,8,9,9,10,10,11,11,12,12,13,13,14,14,15,15,16,16,17,17,18,18,20,20,21,21,22,22,23,23,24,24,25,25,26,26,27,27,28,28,29,29,30,30,31,31,32,32,45,45,47,47,49,49,50,50,52,52],"right_children":[2,4,6,8,10,12,14,16,18,20,22,24,26,28,30,32,34,36,38,-1,40,42,44,46,48,50,52,54,56,58,60,62,64,-1,-1,-1,-1,-1,-1,-1,-1,-1,-1,-1,-1,66,-1,68,-1,70,72,-1,74,-1,-1,-1,-1,-1,-1,-1,-1,-1,-1,-1,-1,-1,-1,-1,-1,-1,-1,-1,-1,-1,-1],"split_conditions":[3E0,1E0,1E0,5.710926E-1,4.8144823E-1,5.710926E-1,4.8144823E-1,4.8144823E-1,4.8144823E-1,8.981176E-1,8.981176E-1,4E0,8.981176E-1,4E0,4E0,2E0,8.981176E-1,8.981176E-1,2E0,-4.9287133E-2,2E0,2E0,2E0,1E0,4.8144823E-1,4E0,4E0,8.981176E-1,8.981176E-1,8.981176E-1,8.981176E-1,8.981176E-1,8.981176E-1,-2.8568614E-2,-3.191541E-2,-5.133754E-2,-5.354197E-2,-3.8115587E-2,-4.9272127E-2,-4.331011E-2,-5.1681913E-2,-3.2813143E-2,-4.419365E-2,-3.761864E-2,-4.6219815E-2,4.8144823E-1,6.562388E-2,8.981176E-1,4.377973E-2,4.8144823E-1,4.8144823E-1,1.454991E-2,4.8144823E-1,1.2023951E-2,7.643502E-3,2.5138436E-2,1.822104E-2,2.6093557E-2,3.0906795E-2,2.3517689E-2,2.0433286E-2,-1.7681198E-2,-9.621906E-3,-3.4149457E-2,-3.9759554E-2,5.187557E-2,-4.529534E-2,5.0428685E-2,4.7080915E-2,4.3981485E-3,1.4630432E-2,1.654945E-2,1.0146463E-2,7.6148533E-3,-1.8349076E-3],"split_indices":[0,3,3,2,6,2,6,6,6,4,4,0,4,0,0,0,4,4,0,0,0,0,0,6,6,0,0,4,4,4,4,4,4,0,0,0,0,0,0,0,0,0,0,0,0,6,0,4,0,6,6,0,6,0,0,0,0,0,0,0,0,0,0,0,0,0,0,0,0,0,0,0,0,0,0],"split_type":[0,0,0,0,0,0,0,0,0,0,0,0,0,0,0,0,0,0,0,0,0,0,0,0,0,0,0,0,0,0,0,0,0,0,0,0,0,0,0,0,0,0,0,0,0,0,0,0,0,0,0,0,0,0,0,0,0,0,0,0,0,0,0,0,0,0,0,0,0,0,0,0,0,0,0],"sum_hessian":[6.02619E5,3.9482625E5,2.0779278E5,2.0936586E5,1.8546039E5,1.502266E5,5.7566184E4,1.6496927E5,4.4396598E4,1.0764167E5,7.781872E4,1.3648862E5,1.373798E4,3.0665682E4,2.69005E4,9.5654586E4,6.931467E4,2.5234676E4,1.9161922E4,5.331889E4,5.4322777E4,3.7950934E4,3.9867785E4,1.4248606E4,1.22240016E5,7.5378003E3,6.20018E3,7.5284546E3,2.3137227E4,5.9633193E3,2.0937182E4,1.35439E3,9.4300195E4,3.465346E4,3.466121E4,1.1945145E4,1.3289532E4,2.217874E2,1.8940135E4,6.421986E2,5.368058E4,3.399169E2,3.761102E4,4.12177E2,3.9455605E4,7.852501E3,6.3961055E3,6.604801E4,5.6192004E4,1.8165154E3,5.7212847E3,1.4935991E3,4.706581E3,3.9279854E3,3.6004695E3,1.3692403E4,9.444823E3,3.1408115E3,2.8225076E3,1.1873881E4,9.0633E3,6.745421E2,6.798479E2,4.7679727E4,4.662047E4,7.850543E3,1.9584185E0,3.9844523E4,2.6203484E4,1.0140759E3,8.024394E2,2.9923884E3,2.7288965E3,2.3513489E3,2.3552322E3],"tree_param":{"num_deleted":"0","num_feature":"7","num_nodes":"75","size_leaf_vector":"1"}},{"base_weights":[1.7093707E-2,2.3307654E-1,-4.2802012E-1,2.0527764E-1,6.1710453E-1,-4.5903054E-1,-3.4989914E-1,1.1225608E-1,3.084892E-1,7.006477E-1,5.325447E-1,-4.702896E-1,-2.744396E-1,-3.597773E-1,-2.4692099E-1,6.1238404E-2,3.03361E-1,3.508746E-1,2.4820718E-1,6.251566E-1,7.686484E-2,4.5823115E-1,6.027171E-1,-4.8265406E-1,-3.424253E-1,-4.9180362E-1,-5.6059007E-2,-3.6694843E-1,-3.5135004E-1,-3.8095436E-1,7.378852E-4,8.611618E-2,2.6078446E-2,3.2636926E-2,2.7190384E-1,2.2297082E-2,3.5216704E-2,1.8487008E-3,2.504154E-2,5.5386066E-1,7.731921E-1,3.925559E-1,6.008906E-2,3.243258E-2,6.058642E-2,-5.035021E-1,-4.5761123E-1,-4.0219605E-1,-3.2840243E-1,-5.5360842E-2,-3.1355894E-1,-8.884463E-2,1.2823746E-1,-3.2553818E-2,-3.7825614E-2,-3.9024383E-2,-3.4232248E-2,-3.4133855E-2,-4.2677846E-2,-1.6679414E-2,8.977378E-3,-6.5952637E-3,2.7481788E-3,7.4239164E-3,2.7387545E-2,7.5602405E-2,5.499155E-2,2.8482825E-2,7.787354E-2,1.1332816E-2,3.966037E-2,-5.3090584E-2,-5.0079007E-2,-5.6098055E-2,-4.480617E-2,-3.6103968E-2,-4.634698E-2,-3.6244478E-2,-2.9041057E-2,8.36674E-2,-3.1642903E-2,8.925331E-2,-8.963014E-3,4.1203354E-3,1.8256588E-2],"categories":[],"categories_nodes":[],"categories_segments":[],"categories_sizes":[],"default_left":[0,0,0,0,0,0,0,0,0,0,0,0,0,0,0,0,0,0,0,0,0,0,0,0,0,0,0,0,0,0,0,0,0,0,0,0,0,0,0,0,0,0,0,0,0,0,0,0,0,0,0,0,0,0,0,0,0,0,0,0,0,0,0,0,0,0,0,0,0,0,0,0,0,0,0,0,0,0,0,0,0,0,0,0,0],"id":6,"left_children":[1,3,5,7,9,11,13,15,17,19,21,23,25,27,29,31,33,35,37,39,-1,41,43,45,47,49,51,53,55,57,-1,59,61,-1,63,-1,-1,-1,-1,65,67,69,-1,-1,-1,71,73,75,77,-1,79,81,83,-1,-1,-1,-1,-1,-1,-1,-1,-1,-1,-1,-1,-1,-1,-1,-1,-1,-1,-1,-1,-1,-1,-1,-1,-1,-1,-1,-1,-1,-1,-1,-1],"loss_changes":[5.8394355E4,4.3657305E3,4.805E2,3.661338E3,1.945166E2,2.9501953E2,5.721582E1,1.9555906E3,4.6175586E2,7.0643555E1,7.118408E1,2.1141602E2,3.8768835E2,2.9091797E0,1.6842358E2,1.3847021E2,3.0441406E1,1.7411133E1,3.782959E1,6.89375E1,0E0,6.2158203E1,5.8913574E0,6.3408203E1,9.692627E0,4.4837585E1,2.4638004E1,1.2810059E1,8.109863E0,5.650818E0,0E0,8.577344E1,8.471104E0,0E0,6.905884E0,0E0,0E0,0E0,0E0,3.001587E0,5.458252E0,5.0702515E0,0E0,0E0,0E0,4.580078E0,5.4404297E1,5.3945923E0,1.2208984E1,0E0,3.70121E0,2.6683521E0,2.880906E0,0E0,0E0,0E0,0E0,0E0,0E0,0E0,0E0,0E0,0E0,0E0,0E0,0E0,0E0,0E0,0E0,0E0,0E0,0E0,0E0,0E0,0E0,0E0,0E0,0E0,0E0,0E0,0E0,0E0,0E0,0E0,0E0],"parents":[2147483647,0,0,1,1,2,2,3,3,4,4,5,5,6,6,7,7,8,8,9,9,10,10,11,11,12,12,13,13,14,14,15,15,16,16,17,17,18,18,19,19,21,21,22,22,23,23,24,24,25,25,26,26,27,27,28,28,29,29,31,31,32,32,34,34,39,39,40,40,41,41,45,45,46,46,47,47,48,48,50,50,51,51,52,52],"right_children":[2,4,6,8,10,12,14,16,18,20,22,24,26,28,30,32,34,36,38,40,-1,42,44,46,48,50,52,54,56,58,-1,60,62,-1,64,-1,-1,-1,-1,66,68,70,-1,-1,-1,72,74,76,78,-1,80,82,84,-1,-1,-1,-1,-1,-1,-1,-1,-1,-1,-1,-1,-1,-1,-1,-1,-1,-1,-1,-1,-1,-1,-1,-1,-1,-1,-1,-1,-1,-1,-1,-1],"split_conditions":[3E0,1.1355499E-1,1E0,1E0,4.8144823E-1,1.1355499E-1,1.1355499E-1,5.710926E-1,4.8144823E-1,1E0,1E0,5.710926E-1,4E0,4.8144823E-1,4E0,4.8144823E-1,4.8144823E-1,2E0,2E0,5.710926E-1,7.686484E-2,5.710926E-1,2E0,4.8144823E-1,4E0,5.710926E-1,5.710926E-1,4E0,4E0,4.8144823E-1,7.378852E-4,2E0,2E0,3.2636926E-2,2E0,2.2297082E-2,3.5216704E-2,1.8487008E-3,2.504154E-2,2E0,2E0,2E0,6.008906E-2,3.243258E-2,6.058642E-2,4E0,4E0,4.8144823E-1,4.8144823E-1,-5.5360842E-2,1E0,1.8140677E-1,8.168017E-1,-3.2553818E-2,-3.7825614E-2,-3.9024383E-2,-3.4232248E-2,-3.4133855E-2,-4.2677846E-2,-1.6679414E-2,8.977378E-3,-6.5952637E-3,2.7481788E-3,7.4239164E-3,2.7387545E-2,7.5602405E-2,5.499155E-2,2.8482825E-2,7.787354E-2,1.1332816E-2,3.966037E-2,-5.3090584E-2,-5.0079007E-2,-5.6098055E-2,-4.480617E-2,-3.6103968E-2,-4.634698E-2,-3.6244478E-2,-2.9041057E-2,8.36674E-2,-3.1642903E-2,8.925331E-2,-8.963014E-3,4.1203354E-3,1.8256588E-2],"split_indices":[0,5,3,3,6,5,5,2,6,3,3,2,0,6,0,6,6,0,0,2,0,2,0,6,0,2,2,0,0,6,0,0,0,0,0,0,0,0,0,0,0,0,0,0,0,0,0,6,6,0,2,5,6,0,0,0,0,0,0,0,0,0,0,0,0,0,0,0,0,0,0,0,0,0,0,0,0,0,0,0,0,0,0,0,0],"split_type":[0,0,0,0,0,0,0,0,0,0,0,0,0,0,0,0,0,0,0,0,0,0,0,0,0,0,0,0,0,0,0,0,0,0,0,0,0,0,0,0,0,0,0,0,0,0,0,0,0,0,0,0,0,0,0,0,0,0,0,0,0,0,0,0,0,0,0,0,0,0,0,0,0,0,0,0,0,0,0,0,0,0,0,0,0],"sum_hessian":[6.0740625E5,4.0896475E5,1.984415E5,3.8136072E5,2.7604031E4,1.420486E5,5.63929E4,2.0058362E5,1.807771E5,1.3881233E4,1.3722798E4,1.3388052E5,8.168083E3,5.1453746E4,4.939152E3,1.583201E5,4.226354E4,1.0614095E5,7.463613E4,6.5838345E3,7.2973984E3,6.6690977E3,7.0537E3,1.22072555E5,1.1807959E4,4.0927122E3,4.0753708E3,2.776927E4,2.3684475E4,3.2343328E3,1.7048192E3,9.271465E4,6.560544E4,2.4402568E4,1.786097E4,1.0643206E3,1.0507663E5,7.111378E2,7.3925E4,4.4473477E3,2.136487E3,4.5697856E3,2.0993123E3,8.036497E1,6.973335E3,6.6602875E4,5.5469684E4,2.2372295E3,9.5707295E3,3.036994E3,1.0557184E3,3.4607734E3,6.1459753E2,5.9646416E3,2.1804629E4,4.451711E3,1.9232764E4,1.7403755E3,1.4939574E3,1.3207028E3,9.1393945E4,9.836019E2,6.462184E4,1.7727661E2,1.7683695E4,8.099398E1,4.3663535E3,2.4768835E1,2.1117183E3,6.606651E1,4.5037188E3,5.976905E3,6.062597E4,4.6852925E3,5.078439E4,1.3434113E3,8.9381824E2,5.0418447E3,4.5288843E3,1.8178545E0,1.0539005E3,1.7581111E0,3.4590151E3,2.3758516E2,3.770124E2],"tree_param":{"num_deleted":"0","num_feature":"7","num_nodes":"85","size_leaf_vector":"1"}},{"base_weights":[1.1675297E-1,1.4984709E-1,5.0263047E-2,1.656438E-1,-8.0419496E-2,1.8568685E-2,1.3175744E-1,2.1386363E-1,1.1041574E-1,-1.5505554E-2,-1.421274E-1,1.07692955E-2,1.5076375E-1,1.8810987E-1,1.1429472E-1,2.7260533E-2,2.130258E-1,8.8698156E-2,1.4121012E-1,-6.5360214E-3,3.3146886E-3,-2.115521E-2,-7.143365E-2,-2.1563946E-4,2.7031649E-2,8.119713E-3,2.1859658E-1,2.3438069E-1,1.2765884E-1,1.0953423E-1,2.2691092E-2,2.2086177E-2,2.0619713E-2,1.1101598E-2,6.9461735E-3,1.756209E-1,1.13821775E-1,1.6798E-2,-7.430044E-3,3.9755427E-3,1.2743464E-2,2.6165048E-2,1.8688856E-2,2.2365939E-2,2.7248768E-2,1.0788642E-2,1.8781027E-2,9.854581E-3,1.2349002E-1,2.5738774E-2,1.7484076E-2,2.9904246E-2,1.1188067E-2,-4.342998E-3,2.091225E-3,1.3462032E-2,1.1160303E-2],"categories":[],"categories_nodes":[],"categories_segments":[],"categories_sizes":[],"default_left":[0,0,0,0,0,0,0,0,0,0,0,0,0,0,0,0,0,0,0,0,0,0,0,0,0,0,0,0,0,0,0,0,0,0,0,0,0,0,0,0,0,0,0,0,0,0,0,0,0,0,0,0,0,0,0,0,0],"id":7,"left_children":[1,3,5,7,9,11,13,15,17,19,21,23,25,27,29,-1,31,33,35,-1,-1,-1,37,-1,39,-1,41,43,45,47,-1,-1,-1,-1,-1,49,51,-1,-1,-1,53,-1,-1,-1,-1,-1,-1,-1,55,-1,-1,-1,-1,-1,-1,-1,-1],"loss_changes":[1.3527021E3,1.493044E3,5.276745E2,1.0228574E3,1.0553528E2,1.5164438E2,5.624286E1,9.985352E0,1.1970703E2,3.115839E1,6.6252655E1,2.9200232E1,3.8620132E1,3.7780365E1,2.3356812E1,0E0,1.0730469E1,4.505316E1,6.973547E1,0E0,0E0,0E0,4.598274E0,0E0,1.117775E1,0E0,5.5682373E0,3.019806E0,6.930992E0,6.392273E0,0E0,0E0,0E0,0E0,0E0,2.0047607E0,1.4750427E1,0E0,0E0,0E0,1.3297402E1,0E0,0E0,0E0,0E0,0E0,0E0,0E0,2.4017944E0,0E0,0E0,0E0,0E0,0E0,0E0,0E0,0E0],"parents":[2147483647,0,0,1,1,2,2,3,3,4,4,5,5,6,6,7,7,8,8,9,9,10,10,11,11,12,12,13,13,14,14,16,16,17,17,18,18,22,22,24,24,26,26,27,27,28,28,29,29,35,35,36,36,40,40,48,48],"right_children":[2,4,6,8,10,12,14,16,18,20,22,24,26,28,30,-1,32,34,36,-1,-1,-1,38,-1,40,-1,42,44,46,48,-1,-1,-1,-1,-1,50,52,-1,-1,-1,54,-1,-1,-1,-1,-1,-1,-1,56,-1,-1,-1,-1,-1,-1,-1,-1],"split_conditions":[3E0,1.1355499E-1,1E0,1E0,1E0,1.8140677E-1,4E0,2E0,4.8144823E-1,4.8144823E-1,4.8144823E-1,8.981176E-1,4E0,4.8144823E-1,1.1355499E-1,2.7260533E-2,8.981176E-1,8.981176E-1,8.981176E-1,-6.5360214E-3,3.3146886E-3,-2.115521E-2,2E0,-2.1563946E-4,4.8144823E-1,8.119713E-3,8.168017E-1,1.1355499E-1,1.1355499E-1,8.981176E-1,2.2691092E-2,2.2086177E-2,2.0619713E-2,1.1101598E-2,6.9461735E-3,2E0,2E0,1.6798E-2,-7.430044E-3,3.9755427E-3,4E0,2.6165048E-2,1.8688856E-2,2.2365939E-2,2.7248768E-2,1.0788642E-2,1.8781027E-2,9.854581E-3,4.8144823E-1,2.5738774E-2,1.7484076E-2,2.9904246E-2,1.1188067E-2,-4.342998E-3,2.091225E-3,1.3462032E-2,1.1160303E-2],"split_indices":[0,5,3,3,3,5,0,0,6,6,6,4,0,6,5,0,4,4,4,0,0,0,0,0,6,0,6,5,5,4,0,0,0,0,0,0,0,0,0,0,0,0,0,0,0,0,0,0,6,0,0,0,0,0,0,0,0],"split_type":[0,0,0,0,0,0,0,0,0,0,0,0,0,0,0,0,0,0,0,0,0,0,0,0,0,0,0,0,0,0,0,0,0,0,0,0,0,0,0,0,0,0,0,0,0,0,0,0,0,0,0,0,0,0,0,0,0],"sum_hessian":[6.147571E5,4.1045697E5,2.0430012E5,3.8410725E5,2.6349734E4,1.4709514E5,5.720499E4,2.0506206E5,1.7904517E5,1.2842682E4,1.3507054E4,1.3890189E5,8.193249E3,1.352953E4,4.3675457E4,2.8774531E3,2.0218461E5,1.0500092E5,7.404426E4,6.343818E3,6.498864E3,6.812974E3,6.694079E3,7.738737E4,6.1514527E4,4.0467432E3,4.146506E3,7.6610366E3,5.8684937E3,4.190684E4,1.7686198E3,9.412689E4,1.0805772E5,4.860274E4,5.639818E4,3.281117E4,4.1233082E4,7.811364E1,6.6159653E3,3.2533938E4,2.898059E4,1.7542031E3,2.392303E3,5.9862974E3,1.6747394E3,4.4200356E3,1.4484578E3,2.3454578E4,1.845226E4,3.0577332E2,3.2505398E4,4.255169E2,4.0807566E4,3.6772263E3,2.5303363E4,9.51976E3,8.932501E3],"tree_param":{"num_deleted":"0","num_feature":"7","num_nodes":"57","size_leaf_vector":"1"}},{"base_weights":[-1.3922201E-1,-4.0642735E-1,3.5102E-1,-3.5727313E-1,-4.6210915E-1,4.0770987E-1,2.0072794E-1,-3.2207683E-1,-4.8940784E-1,-4.4964662E-1,-6.24645E-2,4.3799224E-1,1.0046005E-1,2.1945797E-1,-3.161559E-3,-3.1050298E-1,-5.33473E-2,-4.7544253E-1,-6.3582726E-2,-4.2304944E-2,-4.717692E-1,4.5201725E-1,1.6323188E-1,1.2688865E-1,-1.0129403E-1,2.5306007E-1,1.8193511E-2,1.4448817E-2,-2.7113436E-2,-2.7620378E-1,-3.4196624E-1,-4.4377845E-2,-4.987803E-2,-3.829999E-2,-4.727305E-2,5.3217113E-1,4.444316E-1,5.3911086E-2,-1.726078E-2,1.94058E-2,6.427689E-2,3.781976E-3,-3.446542E-2,1.8945357E-2,2.6376152E-2,-1.2778058E-2,-2.7833775E-2,-1.3449554E-2,-3.4514148E-2,5.5788226E-2,5.1615536E-2,4.6440456E-2,4.1649926E-2,1.367709E-2,4.2346604E-3],"categories":[],"categories_nodes":[],"categories_segments":[],"categories_sizes":[],"default_left":[0,0,0,0,0,0,0,0,0,0,0,0,0,0,0,0,0,0,0,0,0,0,0,0,0,0,0,0,0,0,0,0,0,0,0,0,0,0,0,0,0,0,0,0,0,0,0,0,0,0,0,0,0,0,0],"id":8,"left_children":[1,3,5,7,9,11,13,15,17,19,-1,21,23,25,27,29,-1,31,-1,-1,33,35,37,39,41,43,-1,-1,-1,45,47,-1,-1,-1,-1,49,51,-1,-1,-1,53,-1,-1,-1,-1,-1,-1,-1,-1,-1,-1,-1,-1,-1,-1],"loss_changes":[7.829407E4,1.0585352E3,1.7962754E3,9.553262E2,3.67E2,1.4243516E3,2.2056372E2,3.9673242E2,8.79541E1,9.883594E1,0E0,5.3689453E2,7.326195E1,6.659961E1,1.9231844E2,1.6585645E2,0E0,2.8841797E1,0E0,0E0,7.580078E0,8.02832E1,8.547437E2,5.104619E1,5.3912106E1,1.8895752E1,0E0,0E0,0E0,2.3237305E1,5.2756836E1,0E0,0E0,0E0,0E0,4.32251E0,6.729883E1,0E0,0E0,0E0,9.974556E0,0E0,0E0,0E0,0E0,0E0,0E0,0E0,0E0,0E0,0E0,0E0,0E0,0E0,0E0],"parents":[2147483647,0,0,1,1,2,2,3,3,4,4,5,5,6,6,7,7,8,8,9,9,11,11,12,12,13,13,14,14,15,15,17,17,20,20,21,21,22,22,23,23,24,24,25,25,29,29,30,30,35,35,36,36,40,40],"right_children":[2,4,6,8,10,12,14,16,18,20,-1,22,24,26,28,30,-1,32,-1,-1,34,36,38,40,42,44,-1,-1,-1,46,48,-1,-1,-1,-1,50,52,-1,-1,-1,54,-1,-1,-1,-1,-1,-1,-1,-1,-1,-1,-1,-1,-1,-1],"split_conditions":[3E0,1E0,1E0,5.710926E-1,1.1355499E-1,5.710926E-1,1.1355499E-1,1.1355499E-1,1.1355499E-1,8.981176E-1,-6.24645E-2,1.1355499E-1,1.1355499E-1,8.981176E-1,4E0,8.981176E-1,-5.33473E-2,8.981176E-1,-6.3582726E-2,-4.2304944E-2,2E0,4E0,4E0,8.981176E-1,4E0,4E0,1.8193511E-2,1.4448817E-2,-2.7113436E-2,2E0,2E0,-4.4377845E-2,-4.987803E-2,-3.829999E-2,-4.727305E-2,8.981176E-1,8.981176E-1,5.3911086E-2,-1.726078E-2,1.94058E-2,4E0,3.781976E-3,-3.446542E-2,1.8945357E-2,2.6376152E-2,-1.2778058E-2,-2.7833775E-2,-1.3449554E-2,-3.4514148E-2,5.5788226E-2,5.1615536E-2,4.6440456E-2,4.1649926E-2,1.367709E-2,4.2346604E-3],"split_indices":[0,3,3,2,5,2,5,5,5,4,0,5,5,4,0,4,0,4,0,0,0,0,0,4,0,0,0,0,0,0,0,0,0,0,0,4,4,0,0,0,0,0,0,0,0,0,0,0,0,0,0,0,0,0,0],"split_type":[0,0,0,0,0,0,0,0,0,0,0,0,0,0,0,0,0,0,0,0,0,0,0,0,0,0,0,0,0,0,0,0,0,0,0,0,0,0,0,0,0,0,0,0,0,0,0,0,0,0,0,0,0,0,0],"sum_hessian":[5.9768406E5,3.868388E5,2.1084525E5,2.0546755E5,1.8137127E5,1.5309555E5,5.7749707E4,1.6225292E5,4.3214617E4,1.6845895E5,1.2912304E4,1.393596E5,1.3735961E4,5.2891332E4,4.8583755E3,1.5383353E5,8.419391E3,3.9456254E4,3.7583606E3,7.650478E4,9.195417E4,1.3259056E5,6.7690205E3,1.2145799E4,1.5901615E3,2.7899049E4,2.4992281E4,3.1324963E3,1.7258795E3,7.3606055E4,8.0227484E4,1.675196E4,2.2704295E4,9.9050684E2,9.0963664E4,1.1456161E4,1.2113441E5,3.1939622E3,3.5750583E3,5.857851E3,6.2879478E3,1.0120624E3,5.780991E2,4.0219185E3,2.387713E4,1.0448008E3,7.256125E4,1.2104607E3,7.901702E4,4.3817573E3,7.0744033E3,7.061916E4,5.0515246E4,1.4581168E3,4.829831E3],"tree_param":{"num_deleted":"0","num_feature":"7","num_nodes":"55","size_leaf_vector":"1"}},{"base_weights":[1.5795443E-2,-9.3400665E-2,1.6807598E-1,-1.4895533E-1,1.7499654E-1,1.4822988E-1,4.0329865E-1,-1.6515581E-1,1.3942721E-1,1.4976887E-1,4.0733364E-1,8.837939E-2,2.0031178E-1,4.6577234E-2,3.4014683E-2,-2.1320982E-1,-1.1484952E-1,2.022335E-2,7.976472E-3,9.6481375E-2,1.9057775E-1,4.732678E-2,3.453239E-2,1.2783852E-2,3.1881647E-3,2.3714434E-2,1.5182719E-2,-2.0404285E-2,-2.25623E-2,-9.312352E-3,-1.4274403E-2,1.1489728E-2,7.174404E-3,2.2192711E-2,1.4969583E-2],"categories":[],"categories_nodes":[],"categories_segments":[],"categories_sizes":[],"default_left":[0,0,0,0,0,0,0,0,0,0,0,0,0,0,0,0,0,0,0,0,0,0,0,0,0,0,0,0,0,0,0,0,0,0,0],"id":9,"left_children":[1,3,5,7,9,11,13,15,17,19,21,23,25,-1,-1,27,29,-1,-1,31,33,-1,-1,-1,-1,-1,-1,-1,-1,-1,-1,-1,-1,-1,-1],"loss_changes":[1.0096907E4,5.2728843E3,1.1836504E3,1.3688359E3,3.55338E2,7.2889307E2,7.759888E1,6.705415E2,5.8351135E1,1.1891724E2,2.4036438E1,2.4256122E2,2.2321973E2,0E0,0E0,1.6055664E1,8.209827E1,0E0,0E0,1.0782974E1,3.9632202E1,0E0,0E0,0E0,0E0,0E0,0E0,0E0,0E0,0E0,0E0,0E0,0E0,0E0,0E0],"parents":[2147483647,0,0,1,1,2,2,3,3,4,4,5,5,6,6,7,7,8,8,9,9,10,10,11,11,12,12,15,15,16,16,19,19,20,20],"right_children":[2,4,6,8,10,12,14,16,18,20,22,24,26,-1,-1,28,30,-1,-1,32,34,-1,-1,-1,-1,-1,-1,-1,-1,-1,-1,-1,-1,-1,-1],"split_conditions":[1E0,5.710926E-1,1.1355499E-1,1E0,1.1355499E-1,8.981176E-1,4.8144823E-1,8.981176E-1,4.8144823E-1,8.981176E-1,4.8144823E-1,4.8144823E-1,4.8144823E-1,4.6577234E-2,3.4014683E-2,4.8144823E-1,4.8144823E-1,2.022335E-2,7.976472E-3,4.8144823E-1,4.8144823E-1,4.732678E-2,3.453239E-2,1.2783852E-2,3.1881647E-3,2.3714434E-2,1.5182719E-2,-2.0404285E-2,-2.25623E-2,-9.312352E-3,-1.4274403E-2,1.1489728E-2,7.174404E-3,2.2192711E-2,1.4969583E-2],"split_indices":[3,2,5,5,5,4,6,4,6,4,6,6,6,0,0,6,6,0,0,6,6,0,0,0,0,0,0,0,0,0,0,0,0,0,0],"split_type":[0,0,0,0,0,0,0,0,0,0,0,0,0,0,0,0,0,0,0,0,0,0,0,0,0,0,0,0,0,0,0,0,0,0,0],"sum_hessian":[6.072047E5,3.5362784E5,2.5357688E5,2.929847E5,6.064314E4,2.3384875E5,1.9728123E4,2.7740184E5,1.5582845E4,5.4705207E4,5.9379355E3,1.0881145E5,1.250373E5,9.913306E3,9.814816E3,1.4187428E5,1.3552756E5,7.589434E3,7.99341E3,2.3727748E4,3.0977457E4,2.8739048E3,3.0640305E3,6.4064508E4,4.474694E4,7.105363E4,5.3983664E4,8.1622586E4,6.0251688E4,7.6192195E4,5.933537E4,1.3597382E4,1.0130366E4,1.752893E4,1.3448529E4],"tree_param":{"num_deleted":"0","num_feature":"7","num_nodes":"35","size_leaf_vector":"1"}},{"base_weights":[1.0892991E-1,1.1560167E-1,1.0567291E-2,1.1271614E-1,1.4322618E-1,4.5059636E-2,-2.9721893E-2,1.1783971E-1,1.06305055E-1,1.2985669E-1,1.6072536E-2,6.276833E-2,-4.1051297E-3,-6.5891244E-3,6.733334E-4,1.08345136E-1,1.278683E-1,9.421768E-2,1.2260532E-1,1.4772149E-2,1.1566238E-2,3.7931842E-3,8.581549E-2,-4.850767E-3,3.8115722E-3,1.08327E-2,9.327037E-2,1.360956E-2,1.1749923E-2,1.0808273E-2,8.155614E-3,1.3804703E-2,1.095249E-2,9.715023E-2,8.546356E-3],"categories":[],"categories_nodes":[],"categories_segments":[],"categories_sizes":[],"default_left":[0,0,0,0,0,0,0,0,0,0,0,0,0,0,0,0,0,0,0,0,0,0,0,0,0,0,0,0,0,0,0,0,0,0,0],"id":10,"left_children":[1,3,5,7,9,11,13,15,17,19,-1,21,23,-1,-1,25,27,29,31,-1,-1,-1,33,-1,-1,-1,-1,-1,-1,-1,-1,-1,-1,-1,-1],"loss_changes":[4.0562012E2,4.609912E1,5.4566887E1,1.7180176E1,1.2756348E1,1.8425098E1,2.3884827E1,2.7697754E1,4.583911E1,7.8273315E0,0E0,8.888191E0,1.050434E1,0E0,0E0,2.033081E0,1.2042725E1,2.3442627E1,1.99823E1,0E0,0E0,0E0,2.3251724E0,0E0,0E0,0E0,0E0,0E0,0E0,0E0,0E0,0E0,0E0,0E0,0E0],"parents":[2147483647,0,0,1,1,2,2,3,3,4,4,5,5,6,6,7,7,8,8,9,9,11,11,12,12,15,15,16,16,17,17,18,18,22,22],"right_children":[2,4,6,8,10,12,14,16,18,20,-1,22,24,-1,-1,26,28,30,32,-1,-1,-1,34,-1,-1,-1,-1,-1,-1,-1,-1,-1,-1,-1,-1],"split_conditions":[1E0,5.710926E-1,1E0,1E0,4.8144823E-1,5.710926E-1,4.8144823E-1,8.981176E-1,4.8144823E-1,8.981176E-1,1.6072536E-2,4.8144823E-1,4.8144823E-1,-6.5891244E-3,6.733334E-4,1.8140677E-1,4.8144823E-1,8.981176E-1,8.981176E-1,1.4772149E-2,1.1566238E-2,3.7931842E-3,1E0,-4.850767E-3,3.8115722E-3,1.08327E-2,9.327037E-2,1.360956E-2,1.1749923E-2,1.0808273E-2,8.155614E-3,1.3804703E-2,1.095249E-2,9.715023E-2,8.546356E-3],"split_indices":[5,2,3,3,6,2,6,4,6,4,0,6,6,0,0,5,6,4,4,0,0,0,6,0,0,0,0,0,0,0,0,0,0,0,0],"split_type":[0,0,0,0,0,0,0,0,0,0,0,0,0,0,0,0,0,0,0,0,0,0,0,0,0,0,0,0,0,0,0,0,0,0,0],"sum_hessian":[6.181057E5,5.788426E5,3.926305E4,5.241056E5,5.473703E4,2.1154576E4,1.8108475E4,2.9128534E5,2.3282025E5,3.1037959E4,2.3699072E4,1.5553945E4,5.6006313E3,9.09085E3,9.017625E3,1.4963762E5,1.4164773E5,1.3369347E5,9.912678E4,1.3734905E4,1.7303055E4,7.4897207E3,8.064224E3,2.7308691E3,2.8697625E3,1.4963558E5,2.0407653E0,7.896855E4,6.267919E4,6.380651E4,6.988695E4,4.5452234E4,5.367455E4,1.9941095E0,8.06223E3],"tree_param":{"num_deleted":"0","num_feature":"7","num_nodes":"35","size_leaf_vector":"1"}},{"base_weights":[-1.2858875E-1,-3.8581973E-1,3.2350633E-1,-4.409877E-1,-1.8456934E-1,1.3008179E-1,5.027962E-1,-5.047127E-1,-3.871063E-1,-2.3241097E-1,-3.7185203E-2,3.273478E-2,2.2262304E-1,4.0117294E-1,6.459764E-1,-4.9290994E-1,-6.2769324E-1,-3.769653E-1,-5.557381E-1,-2.2249444E-1,-4.790369E-1,-8.661828E-2,4.803954E-2,-6.9374636E-2,7.943892E-2,3.9799243E-1,1.9228917E-1,6.2397474E-1,3.7851897E-1,5.7978535E-1,7.2956914E-1,-5.5130136E-1,-4.842343E-1,-6.4450435E-2,-6.0735364E-2,-4.1521886E-1,-3.4756583E-1,-5.7935674E-2,-5.3441323E-2,-1.9647701E-1,-2.7509773E-1,-5.4736413E-2,-4.3886885E-1,-7.652107E-2,-3.293004E-1,8.952278E-2,-6.070578E-2,-1.0806873E-2,-1.3012676E-1,1.8051612E-1,4.486537E-2,3.4401682E-1,5.0077784E-1,2.0646094E-1,-2.3839974E-1,5.516851E-1,6.832069E-1,3.9206997E-1,-1.3165292E-1,8.535035E-1,5.6293E-1,7.4375355E-1,2.3855007E-1,-5.2124538E-2,-5.6938957E-2,-5.0216043E-1,-4.5334774E-1,-4.3723533E-1,-3.8234982E-1,-3.2455787E-1,-3.8224262E-1,-2.2207178E-1,-1.3661364E-1,-2.9480347E-1,-2.2611366E-1,-1.6846515E-2,-4.459754E-1,-5.831827E-2,-1.1877151E-1,-3.651826E-2,-1.9811976E-1,1.656168E-1,3.0176723E-2,-4.249446E-2,-4.2387584E-1,6.545518E-2,-5.5364024E-2,-1.6107231E-1,-7.994677E-2,2.4438035E-1,1.0927982E-1,6.453747E-2,-3.606148E-1,2.8838086E-1,4.121397E-1,5.506003E-2,4.0371254E-1,1.5394051E-1,2.3388228E-1,-3.4401894E-2,-1.5954523E-1,6.199037E-1,4.185708E-1,6.849311E-1,-6.002439E-2,3.4599385E-1,4.564203E-1,-1.0212205E-2,-2.1664032E-1,8.5565746E-2,-4.6657402E-2,5.764212E-1,6.004012E-2,7.6149756E-1,6.2085444E-1,1.0014144E0,1.3044816E-1,-4.831069E-2,-5.159206E-2,-4.1791696E-2,-4.771505E-2,-4.2034954E-1,-4.56487E-2,-3.523859E-2,-4.1366637E-2,-3.4447747E-1,-2.9751045E-1,-4.0791458E-1,-3.495301E-2,-2.84579E-2,-2.254541E-2,-1.2347072E-1,-1.5047513E-2,-3.1522235E-1,-2.7541554E-1,-5.7937126E-3,-2.2873437E-2,-4.127564E-2,-4.9815483E-2,-7.328135E-2,9.929029E-4,-8.617059E-3,-1.4708829E-2,-5.4092985E-2,-5.1494706E-2,1.8130507E-1,-2.682257E-2,5.066385E-2,-7.81448E-3,1.6337277E-2,-9.0952754E-2,-4.8424218E-2,-3.237928E-2,3.4981514E-3,1.7120628E-1,-3.289504E-3,-4.2214416E-2,-1.4747562E-2,-2.2332892E-1,7.092964E-2,-9.455091E-2,1.996213E-2,3.0661178E-1,3.847199E-3,2.078482E-1,8.093124E-2,3.4147955E-2,-4.1163307E-2,-3.0626362E-2,3.3356982E-1,2.1246724E-2,4.5325896E-1,3.5181966E-2,4.5362838E-2,3.5080355E-2,1.781649E-2,9.649417E-3,2.6377946E-1,1.9790573E-1,-2.3365503E-2,-2.507971E-3,6.213917E-1,-4.941386E-2,3.0409543E-2,5.4120773E-1,6.664943E-2,7.540791E-1,4.0137863E-1,2.825187E-1,4.9083593E-1,4.194756E-1,-2.5136137E-2,4.0769526E-3,6.2886333E-1,5.208152E-1,-5.8218715E-4,3.6198398E-1,7.2092026E-1,7.8848004E-1,9.368672E-1,6.0761815E-1,1.23501E-1,7.818226E-2,-7.0109027E-3,2.60767E-1,-2.7757114E-2,-4.2201802E-2,-3.634962E-2,-3.1751554E-2,-1.4283225E-2,-2.9968072E-2,-4.1898966E-2,-3.897084E-2,6.5173022E-3,-1.4907777E-2,7.7893455E-5,-1.2639212E-2,-3.3938363E-2,-2.9016867E-2,-1.2990951E-2,-2.7761651E-2,-5.282746E-3,-9.352199E-3,2.4844615E-2,-2.272605E-2,1.1984394E-2,2.7378706E-2,-1.1280264E-3,8.6118E-3,3.498448E-2,6.0266507E-4,-5.4476626E-2,-8.167412E-3,6.296617E-2,-6.1456233E-2,-1.633811E-2,2.2386152E-3,2.4782179E-2,3.527065E-3,-1.7462479E-2,-5.2602466E-2,1.6286435E-2,-3.6926627E-2,-3.7267164E-3,-1.7003465E-2,2.2718651E-2,3.91994E-2,2.4342148E-2,1.1509916E-2,9.661475E-3,5.6708157E-3,6.3716085E-4,5.743719E-3,3.360463E-2,-6.054166E-2,3.837521E-2,5.465145E-2,2.8421083E-2,2.052061E-2,2.0917064E-2,1.6880399E-2,6.003331E-2,7.115439E-2,5.8562376E-2,3.61042E-2,9.2120506E-2,6.0002305E-2,4.233369E-2,3.247391E-2,2.6811182E-2,3.124744E-2,5.1128667E-2,3.9979924E-2,3.7460927E-2,4.4345614E-2,5.9931386E-2,6.8707846E-2,4.5741793E-2,5.5851787E-2,7.70065E-2,1.5612668E-2,9.621532E-2,7.1310185E-2,8.116008E-2,7.679378E-2,1.1869593E-1,7.431154E-2,5.323973E-2,6.687667E-2,3.1323478E-2,-1.0755583E-2],"categories":[],"categories_nodes":[],"categories_segments":[],"categories_sizes":[],"default_left":[0,0,0,0,0,0,0,0,0,0,0,0,0,0,0,0,0,0,0,0,0,0,0,0,0,0,0,0,0,0,0,0,0,0,0,0,0,0,0,0,0,0,0,0,0,0,0,0,0,0,0,0,0,0,0,0,0,0,0,0,0,0,0,0,0,0,0,0,0,0,0,0,0,0,0,0,0,0,0,0,0,0,0,0,0,0,0,0,0,0,0,0,0,0,0,0,0,0,0,0,0,0,0,0,0,0,0,0,0,0,0,0,0,0,0,0,0,0,0,0,0,0,0,0,0,0,0,0,0,0,0,0,0,0,0,0,0,0,0,0,0,0,0,0,0,0,0,0,0,0,0,0,0,0,0,0,0,0,0,0,0,0,0,0,0,0,0,0,0,0,0,0,0,0,0,0,0,0,0,0,0,0,0,0,0,0,0,0,0,0,0,0,0,0,0,0,0,0,0,0,0,0,0,0,0,0,0,0,0,0,0,0,0,0,0,0,0,0,0,0,0,0,0,0,0,0,0,0,0,0,0,0,0,0,0,0,0,0,0,0,0,0,0,0,0,0,0,0,0,0,0,0,0,0,0,0,0,0,0,0,0,0,0,0,0,0,0,0,0,0,0,0,0,0,0,0,0,0,0,0,0,0,0,0,0,0,0,0,0,0,0],"id":11,"left_children":[1,3,5,7,9,11,13,15,17,19,21,23,25,27,29,31,33,35,37,39,41,43,45,47,49,51,53,55,57,59,61,63,65,-1,-1,67,69,-1,-1,71,73,-1,75,77,79,81,83,85,87,89,91,93,95,97,99,101,103,105,107,109,111,113,115,-1,-1,117,119,121,123,125,127,129,131,133,135,-1,137,139,141,-1,143,145,147,149,151,153,155,157,159,161,163,165,167,169,171,-1,173,175,177,-1,179,181,183,185,-1,187,189,-1,191,-1,-1,193,195,197,199,201,203,-1,-1,-1,-1,205,-1,-1,-1,207,209,211,-1,213,-1,215,-1,217,219,-1,-1,-1,-1,221,-1,-1,-1,223,-1,225,-1,227,-1,229,231,-1,233,235,237,-1,-1,-1,239,241,243,-1,245,-1,247,249,251,-1,-1,253,-1,255,-1,-1,-1,-1,-1,257,259,-1,-1,261,-1,-1,263,-1,265,267,269,271,273,-1,-1,275,277,-1,279,281,283,285,287,-1,-1,-1,289,-1,-1,-1,-1,-1,-1,-1,-1,-1,-1,-1,-1,-1,-1,-1,-1,-1,-1,-1,-1,-1,-1,-1,-1,-1,-1,-1,-1,-1,-1,-1,-1,-1,-1,-1,-1,-1,-1,-1,-1,-1,-1,-1,-1,-1,-1,-1,-1,-1,-1,-1,-1,-1,-1,-1,-1,-1,-1,-1,-1,-1,-1,-1,-1,-1,-1,-1,-1,-1,-1,-1,-1,-1,-1,-1,-1,-1,-1,-1,-1,-1,-1,-1,-1,-1,-1],"loss_changes":[6.863366E4,4.1761523E3,7.422006E3,1.01339844E3,5.706196E2,9.274501E2,1.6157441E3,1.9589844E2,2.7326758E2,1.4924854E2,8.356958E1,2.392945E2,2.8063257E2,3.2756543E2,2.5455273E2,6.215039E1,3.5317383E0,1.6949023E2,4.1481934E0,8.0288086E1,6.1395874E0,3.0697632E1,3.2854626E1,5.601557E1,1.2028848E2,4.2915283E1,2.7470312E2,2.5164307E1,4.0777246E2,1.18115234E2,1.4159766E2,8.269043E0,5.917383E1,0E0,0E0,4.7200195E1,6.788672E1,0E0,0E0,6.015686E1,1.8640503E1,0E0,2.7315063E0,9.246269E0,2.228531E0,2.3781723E1,1.323254E1,2.7253956E1,1.1964401E1,3.985562E1,2.0464937E2,1.916388E1,1.2626099E1,6.2668335E1,1.1835869E1,2.4203918E1,7.6989746E0,1.7009277E2,3.7769508E0,4.6766357E0,1.6440625E2,4.2560547E1,4.7058502E1,0E0,0E0,1.7476562E1,3.3003906E1,1.248291E1,2.4467773E1,2.7476074E1,2.8358398E1,1.799707E1,2.0993347E0,5.338745E0,2.4178162E0,0E0,2.2223816E0,8.614172E0,3.3123589E0,0E0,4.950414E0,1.5755173E1,6.5783377E0,5.470929E0,2.1927166E0,1.9357952E1,4.1669914E1,3.9747467E0,6.5120735E0,1.2770508E1,2.8933651E1,1.2177032E1,3.0937958E0,9.530624E0,5.4457397E0,0E0,2.1697388E0,2.075708E1,3.0684326E1,0E0,8.172569E0,3.2806396E0,1.2670212E1,3.5441895E0,0E0,1.1752588E2,3.0174805E1,0E0,3.5335312E0,0E0,0E0,6.841504E1,1.2661609E1,1.8216797E1,9.749329E0,2.4710464E0,1.3201262E1,0E0,0E0,0E0,0E0,4.798584E0,0E0,0E0,0E0,1.4962891E1,7.220703E0,3.598877E0,0E0,5.375159E0,0E0,2.2100906E0,0E0,3.9174194E0,2.2023926E0,0E0,0E0,0E0,0E0,2.8428993E0,0E0,0E0,0E0,4.098506E0,0E0,1.259861E1,0E0,5.485145E0,0E0,2.9375825E0,4.3211107E0,0E0,5.807931E0,5.8723664E0,1.1334774E1,0E0,0E0,0E0,1.241711E1,1.0578915E1,1.1612663E1,0E0,1.2951035E1,0E0,5.6579056E0,6.016945E0,5.542859E0,0E0,0E0,4.2735443E0,0E0,8.503998E0,0E0,0E0,0E0,0E0,0E0,1.8592407E1,4.186798E0,0E0,0E0,2.8290405E0,0E0,0E0,3.23555E0,0E0,1.687732E1,2.9872803E1,6.5928955E0,2.2791504E1,1.2196899E1,0E0,0E0,2.0354492E1,2.7053223E1,0E0,9.360389E0,1.219873E1,4.1464844E0,3.6982346E0,1.0592163E1,0E0,0E0,0E0,5.9639435E0,0E0,0E0,0E0,0E0,0E0,0E0,0E0,0E0,0E0,0E0,0E0,0E0,0E0,0E0,0E0,0E0,0E0,0E0,0E0,0E0,0E0,0E0,0E0,0E0,0E0,0E0,0E0,0E0,0E0,0E0,0E0,0E0,0E0,0E0,0E0,0E0,0E0,0E0,0E0,0E0,0E0,0E0,0E0,0E0,0E0,0E0,0E0,0E0,0E0,0E0,0E0,0E0,0E0,0E0,0E0,0E0,0E0,0E0,0E0,0E0,0E0,0E0,0E0,0E0,0E0,0E0,0E0,0E0,0E0,0E0,0E0,0E0,0E0,0E0,0E0,0E0,0E0,0E0,0E0,0E0,0E0,0E0,0E0,0E0,0E0,0E0],"parents":[2147483647,0,0,1,1,2,2,3,3,4,4,5,5,6,6,7,7,8,8,9,9,10,10,11,11,12,12,13,13,14,14,15,15,16,16,17,17,18,18,19,19,20,20,21,21,22,22,23,23,24,24,25,25,26,26,27,27,28,28,29,29,30,30,31,31,32,32,35,35,36,36,39,39,40,40,42,42,43,43,44,44,45,45,46,46,47,47,48,48,49,49,50,50,51,51,52,52,53,53,54,54,55,55,56,56,57,57,58,58,59,59,60,60,61,61,62,62,65,65,66,66,67,67,68,68,69,69,70,70,71,71,72,72,73,73,74,74,76,76,77,77,78,78,80,80,81,81,82,82,83,83,84,84,85,85,86,86,87,87,88,88,89,89,90,90,91,91,92,92,93,93,94,94,96,96,97,97,98,98,100,100,101,101,102,102,103,103,105,105,106,106,108,108,111,111,112,112,113,113,114,114,115,115,116,116,121,121,125,125,126,126,127,127,129,129,131,131,133,133,134,134,139,139,143,143,145,145,147,147,149,149,150,150,152,152,153,153,154,154,158,158,159,159,160,160,162,162,164,164,165,165,166,166,169,169,171,171,177,177,178,178,181,181,184,184,186,186,187,187,188,188,189,189,190,190,193,193,194,194,196,196,197,197,198,198,199,199,200,200,204,204],"right_children":[2,4,6,8,10,12,14,16,18,20,22,24,26,28,30,32,34,36,38,40,42,44,46,48,50,52,54,56,58,60,62,64,66,-1,-1,68,70,-1,-1,72,74,-1,76,78,80,82,84,86,88,90,92,94,96,98,100,102,104,106,108,110,112,114,116,-1,-1,118,120,122,124,126,128,130,132,134,136,-1,138,140,142,-1,144,146,148,150,152,154,156,158,160,162,164,166,168,170,172,-1,174,176,178,-1,180,182,184,186,-1,188,190,-1,192,-1,-1,194,196,198,200,202,204,-1,-1,-1,-1,206,-1,-1,-1,208,210,212,-1,214,-1,216,-1,218,220,-1,-1,-1,-1,222,-1,-1,-1,224,-1,226,-1,228,-1,230,232,-1,234,236,238,-1,-1,-1,240,242,244,-1,246,-1,248,250,252,-1,-1,254,-1,256,-1,-1,-1,-1,-1,258,260,-1,-1,262,-1,-1,264,-1,266,268,270,272,274,-1,-1,276,278,-1,280,282,284,286,288,-1,-1,-1,290,-1,-1,-1,-1,-1,-1,-1,-1,-1,-1,-1,-1,-1,-1,-1,-1,-1,-1,-1,-1,-1,-1,-1,-1,-1,-1,-1,-1,-1,-1,-1,-1,-1,-1,-1,-1,-1,-1,-1,-1,-1,-1,-1,-1,-1,-1,-1,-1,-1,-1,-1,-1,-1,-1,-1,-1,-1,-1,-1,-1,-1,-1,-1,-1,-1,-1,-1,-1,-1,-1,-1,-1,-1,-1,-1,-1,-1,-1,-1,-1,-1,-1,-1,-1,-1,-1],"split_conditions":[3E0,2.2866008E-1,4.85587E-1,-1.7925169E-1,6.8027425E-1,1.6168928E-1,9.8845786E-1,1.1355499E-1,1.1355499E-1,1.1355499E-1,9.3287235E-1,-1.7925169E-1,4E0,4E0,1.2728996E0,-7.1043015E-1,4.8144823E-1,-1.161684E-1,4.8144823E-1,1E0,4.8144823E-1,1.1355499E-1,1E0,1E0,4E0,3.8297176E-1,1.1355499E-1,6.7294276E-1,1.1355499E-1,4E0,1.1355499E-1,1E0,4.8144823E-1,-6.4450435E-2,-6.0735364E-2,4.8144823E-1,1E0,-5.7935674E-2,-5.3441323E-2,5.3672445E-1,4.85587E-1,-5.4736413E-2,2E0,1E0,8.570628E-1,4.8144823E-1,1.1355499E-1,4E0,4.8144823E-1,1E0,1.1355499E-1,4.8144823E-1,1E0,2.2866008E-1,4.8144823E-1,1E0,9.430108E-1,6.864973E-1,1E0,1.2159601E0,1.1355499E-1,1E0,4E0,-5.2124538E-2,-5.6938957E-2,1E0,1E0,1E0,1E0,1.6168928E-1,4.8144823E-1,2E0,4.8144823E-1,2.9968184E-1,2E0,-1.6846515E-2,1E0,7.797868E-1,4.8144823E-1,-3.651826E-2,1E0,1.1355499E-1,1.2159601E0,4.8144823E-1,1.0924771E0,1E0,1.1355499E-1,1.1355499E-1,-7.1043015E-1,4.8144823E-1,4.8144823E-1,1E0,4.8144823E-1,1E0,1E0,5.506003E-2,4.8144823E-1,1E0,4.8144823E-1,-3.4401894E-2,2.9968184E-1,6.2305665E-1,4.8144823E-1,8.6714494E-1,-6.002439E-2,4.8144823E-1,4.8144823E-1,-1.0212205E-2,8.6714494E-1,8.5565746E-2,-4.6657402E-2,4.8144823E-1,1E0,1.38617E0,4E0,4.8144823E-1,1.38617E0,-4.831069E-2,-5.159206E-2,-4.1791696E-2,-4.771505E-2,2E0,-4.56487E-2,-3.523859E-2,-4.1366637E-2,4.8144823E-1,2E0,1.6168928E-1,-3.495301E-2,4.8144823E-1,-2.254541E-2,2E0,-1.5047513E-2,4.8144823E-1,2E0,-5.7937126E-3,-2.2873437E-2,-4.127564E-2,-4.9815483E-2,4.8144823E-1,9.929029E-4,-8.617059E-3,-1.4708829E-2,4.8144823E-1,-5.1494706E-2,1.0824859E0,-2.682257E-2,9.430108E-1,-7.81448E-3,2E0,2E0,-4.8424218E-2,1.2159601E0,-7.1043015E-1,1.1355499E-1,-3.289504E-3,-4.2214416E-2,-1.4747562E-2,4E0,1.1355499E-1,4E0,1.996213E-2,-1.6709332E-1,3.847199E-3,1.1355499E-1,4.8144823E-1,-1.6709332E-1,-4.1163307E-2,-3.0626362E-2,2.9968184E-1,2.1246724E-2,2.2866008E-1,3.5181966E-2,4.5362838E-2,3.5080355E-2,1.781649E-2,9.649417E-3,1E0,1E0,-2.3365503E-2,-2.507971E-3,1.1355499E-1,-4.941386E-2,3.0409543E-2,1.1355499E-1,6.664943E-2,4.8144823E-1,1E0,6.2305665E-1,1E0,7.797868E-1,-2.5136137E-2,4.0769526E-3,1.0924771E0,1.0120021E0,-5.8218715E-4,1.0120021E0,4E0,4.8144823E-1,4.8144823E-1,1.38617E0,1.23501E-1,7.818226E-2,-7.0109027E-3,1E0,-2.7757114E-2,-4.2201802E-2,-3.634962E-2,-3.1751554E-2,-1.4283225E-2,-2.9968072E-2,-4.1898966E-2,-3.897084E-2,6.5173022E-3,-1.4907777E-2,7.7893455E-5,-1.2639212E-2,-3.3938363E-2,-2.9016867E-2,-1.2990951E-2,-2.7761651E-2,-5.282746E-3,-9.352199E-3,2.4844615E-2,-2.272605E-2,1.1984394E-2,2.7378706E-2,-1.1280264E-3,8.6118E-3,3.498448E-2,6.0266507E-4,-5.4476626E-2,-8.167412E-3,6.296617E-2,-6.1456233E-2,-1.633811E-2,2.2386152E-3,2.4782179E-2,3.527065E-3,-1.7462479E-2,-5.2602466E-2,1.6286435E-2,-3.6926627E-2,-3.7267164E-3,-1.7003465E-2,2.2718651E-2,3.91994E-2,2.4342148E-2,1.1509916E-2,9.661475E-3,5.6708157E-3,6.3716085E-4,5.743719E-3,3.360463E-2,-6.054166E-2,3.837521E-2,5.465145E-2,2.8421083E-2,2.052061E-2,2.0917064E-2,1.6880399E-2,6.003331E-2,7.115439E-2,5.8562376E-2,3.61042E-2,9.2120506E-2,6.0002305E-2,4.233369E-2,3.247391E-2,2.6811182E-2,3.124744E-2,5.1128667E-2,3.9979924E-2,3.7460927E-2,4.4345614E-2,5.9931386E-2,6.8707846E-2,4.5741793E-2,5.5851787E-2,7.70065E-2,1.5612668E-2,9.621532E-2,7.1310185E-2,8.116008E-2,7.679378E-2,1.1869593E-1,7.431154E-2,5.323973E-2,6.687667E-2,3.1323478E-2,-1.0755583E-2],"split_indices":[0,1,1,1,1,1,1,5,5,5,1,1,0,0,1,1,6,1,6,3,6,5,3,3,0,1,5,1,5,0,5,3,6,0,0,6,3,0,0,1,1,0,0,3,1,6,5,0,6,3,5,6,3,1,6,3,1,1,3,1,5,3,0,0,0,3,3,3,3,1,6,0,6,1,0,0,3,1,6,0,3,5,1,6,1,6,5,5,1,6,6,3,6,3,3,0,6,3,6,0,1,1,6,1,0,6,6,0,1,0,0,6,3,1,0,6,1,0,0,0,0,0,0,0,0,6,0,1,0,6,0,0,0,6,0,0,0,0,0,6,0,0,0,6,0,1,0,1,0,0,0,0,1,1,5,0,0,0,0,5,0,0,1,0,5,6,1,0,0,1,0,1,0,0,0,0,0,3,3,0,0,5,0,0,5,0,6,3,1,3,1,0,0,1,1,0,1,0,6,6,1,0,0,0,3,0,0,0,0,0,0,0,0,0,0,0,0,0,0,0,0,0,0,0,0,0,0,0,0,0,0,0,0,0,0,0,0,0,0,0,0,0,0,0,0,0,0,0,0,0,0,0,0,0,0,0,0,0,0,0,0,0,0,0,0,0,0,0,0,0,0,0,0,0,0,0,0,0,0,0,0,0,0,0,0,0,0,0,0,0,0],"split_type":[0,0,0,0,0,0,0,0,0,0,0,0,0,0,0,0,0,0,0,0,0,0,0,0,0,0,0,0,0,0,0,0,0,0,0,0,0,0,0,0,0,0,0,0,0,0,0,0,0,0,0,0,0,0,0,0,0,0,0,0,0,0,0,0,0,0,0,0,0,0,0,0,0,0,0,0,0,0,0,0,0,0,0,0,0,0,0,0,0,0,0,0,0,0,0,0,0,0,0,0,0,0,0,0,0,0,0,0,0,0,0,0,0,0,0,0,0,0,0,0,0,0,0,0,0,0,0,0,0,0,0,0,0,0,0,0,0,0,0,0,0,0,0,0,0,0,0,0,0,0,0,0,0,0,0,0,0,0,0,0,0,0,0,0,0,0,0,0,0,0,0,0,0,0,0,0,0,0,0,0,0,0,0,0,0,0,0,0,0,0,0,0,0,0,0,0,0,0,0,0,0,0,0,0,0,0,0,0,0,0,0,0,0,0,0,0,0,0,0,0,0,0,0,0,0,0,0,0,0,0,0,0,0,0,0,0,0,0,0,0,0,0,0,0,0,0,0,0,0,0,0,0,0,0,0,0,0,0,0,0,0,0,0,0,0,0,0,0,0,0,0,0,0,0,0,0,0,0,0,0,0,0,0,0,0,0,0,0,0,0,0],"sum_hessian":[5.901773E5,3.7615484E5,2.140225E5,2.9522444E5,8.09304E4,1.029541E5,1.110684E5,1.3525245E5,1.5997198E5,6.1096812E4,1.983359E4,5.0175434E4,5.2778664E4,6.4964125E4,4.6104273E4,1.234139E5,1.1838557E4,1.5090108E5,9.070901E3,5.873736E4,2.3594526E3,1.2553383E4,7.2802065E3,1.5746399E4,3.4429035E4,7.78069E3,4.4997977E4,5.9929136E3,5.897121E4,2.5735379E4,2.0368893E4,1.5954968E4,1.0745893E5,6.4619893E3,5.3765674E3,6.556876E4,8.533232E4,4.2893306E3,4.7815713E3,3.930424E4,1.9433123E4,8.679404E2,1.4915121E3,1.20536E4,4.997833E2,5.2706865E3,2.0095201E3,8.01877E3,7.7276294E3,8.773176E3,2.565586E4,5.1051484E3,2.6755415E3,4.356522E4,1.432756E3,2.7043762E3,3.2885376E3,5.7445785E4,1.5254266E3,1.4896128E3,2.4245768E4,1.9796303E4,5.7259033E2,6.007723E3,9.947244E3,6.798368E4,3.947525E4,3.92577E4,2.6311062E4,5.130487E4,3.402745E4,2.7529521E4,1.1774717E4,1.3853114E4,5.580008E3,3.918801E1,1.4523241E3,8.427512E3,3.626088E3,3.9043933E2,1.0934399E2,2.3079446E3,2.962742E3,1.9148895E3,9.46306E1,2.956257E3,5.0625127E3,4.777304E3,2.950325E3,4.62393E3,4.1492456E3,2.4469781E4,1.1860779E3,2.8138103E3,2.2913381E3,1.7642634E3,9.1127814E2,1.4947101E4,2.8618117E4,6.104616E2,8.2229443E2,1.785125E3,9.192511E2,3.2846694E3,3.8682456E0,3.348081E4,2.3964977E4,1.1345714E3,3.9085526E2,1.487613E3,1.999731E0,2.3611975E4,6.337928E2,1.7293484E4,2.5028188E3,6.992784E1,5.0266248E2,2.8526588E4,3.9457094E4,1.58721045E4,2.3603146E4,2.0928883E4,1.8328814E4,1.3453803E4,1.285726E4,2.95366E4,2.1768273E4,1.9057275E4,1.4970176E4,4.733378E2,2.7056184E4,6.0528096E3,5.7219067E3,6.7372188E3,7.115895E3,8.655948E1,5.4934487E3,8.9400183E2,5.5832227E2,6.9131987E3,1.5143132E3,1.6890597E3,1.9370281E3,7.619349E1,3.3150497E1,2.2281833E3,7.976123E1,2.4927393E3,4.7000272E2,8.642405E2,1.050649E3,8.156193E1,1.3068673E1,1.8653639E3,1.0908933E3,4.7715684E3,2.9094443E2,3.9250564E3,8.522479E2,2.5942996E2,2.690895E3,2.6929092E3,1.9310211E3,2.4160505E3,1.7331952E3,1.5891879E4,8.577902E3,6.0745776E2,5.7862006E2,1.7608942E3,1.052916E3,1.3576659E3,9.3367224E2,4.6403302E2,4.4724515E2,1.0510935E4,4.4361665E3,1.5624637E4,1.2993481E4,5.2916644E2,2.93128E2,1.7832751E3,1.8499316E0,4.776677E2,4.4158337E2,2.602779E3,6.818904E2,1.787618E4,1.5604628E4,1.2399402E4,1.1565575E4,3.447634E2,4.6091866E1,1.2145461E4,1.1466514E4,5.208345E2,1.1295832E2,6.9193354E3,1.0374148E4,9.7508064E1,2.4053108E3,3.1422241E1,3.85056E1,1.978584E2,3.0480408E2,2.44369E2,2.0684514E4,1.7310043E4,1.2226557E4,3.027641E2,2.146551E4,1.1832127E4,7.225148E3,2.662739E2,2.070639E2,1.3827727E2,5.9145327E3,3.421272E3,3.315947E3,1.0760412E2,7.008291E3,3.4427388E3,3.47046E3,2.7367619E1,4.882587E1,1.3406196E3,8.8756384E2,9.066087E2,1.5861305E3,2.4638977E1,8.396015E2,1.967879E1,1.0309702E3,5.996413E0,7.07226E0,1.8834592E2,1.677018E3,6.966765E2,3.9421674E2,7.35769E2,1.1647893E2,2.1531807E2,4.411189E1,1.5314862E3,1.1594088E3,1.0029121E3,9.281091E2,1.2507687E3,4.8242654E2,9.641962E3,6.249917E3,3.9146223E3,4.6632803E3,1.7570089E3,3.8852534E0,7.814267E2,5.7623914E2,1.1579838E4,4.0447988E3,9.360525E3,3.6329558E3,1.4527064E3,3.3056873E2,3.5199988E2,8.95835E1,3.2437125E2,3.575191E2,1.3890528E4,3.9856504E3,1.0545949E4,5.0586797E3,1.0120248E4,2.2791538E3,4.035729E3,7.529846E3,8.0648345E3,4.0806262E3,4.282036E3,7.1844775E3,3.6793747E1,7.616457E1,2.1298459E2,6.7063506E3,4.860342E3,5.5138066E3,4.0102287E1,5.7405777E1,1.0836356E3,1.321675E3,2.6716705E2,3.7637016E1],"tree_param":{"num_deleted":"0","num_feature":"7","num_nodes":"291","size_leaf_vector":"1"}},{"base_weights":[1.4821675E-2,2.2007953E-1,-2.4820524E-1,3.5526702E-1,8.3048835E-2,-1.5822005E-1,-4.177104E-1,2.800505E-1,4.0699807E-1,1.309193E-1,2.3396773E-2,-6.1336774E-2,-2.0459558E-1,-3.3879635E-1,-4.7215337E-1,2.2757705E-1,3.8808796E-1,5.4641433E-2,3.847847E-1,8.551809E-2,1.8115966E-1,-1.1417148E-2,7.2512664E-2,-9.670777E-2,-5.4805196E-4,-1.7023437E-1,-2.6679805E-1,-3.761189E-1,-3.0091482E-1,-5.112973E-1,-4.3525153E-1,3.4992206E-1,2.1116112E-1,5.3215235E-1,3.652892E-1,4.0601024E-1,3.5057068E-1,5.269565E-2,1.9064121E-1,1.9705187E-1,1.585452E-2,-3.7147384E-2,1.0087793E-1,8.849621E-3,5.2164774E-3,-1.2009096E-1,3.700176E-3,-1.8977855E-3,1.8782664E-2,-1.9294854E-1,-1.233335E-1,-2.9563642E-1,-1.9791567E-1,-3.9641896E-1,-3.1036595E-1,-2.613269E-1,-3.3395615E-1,-4.7656068E-1,-5.5091953E-1,-4.5334506E-1,-3.5991699E-1,4.069238E-1,2.562027E-2,2.288564E-2,1.7969006E-1,5.6767607E-1,4.7331753E-1,3.47668E-2,3.811546E-1,3.960283E-2,4.157112E-2,3.2535896E-2,3.7416525E-2,7.431114E-2,1.8508298E-3,1.6642056E-2,2.1315066E-2,1.6831473E-2,2.2626333E-2,-5.1657613E-3,-2.2005383E-2,7.917717E-3,1.2131534E-2,-1.3216002E-1,-1.0398682E-2,4.2385617E-3,-1.0239186E-3,-2.105636E-1,-6.221286E-2,-1.0410304E-1,-1.3974978E-1,-3.3348972E-1,-2.541662E-1,-2.2508477E-1,-1.6392654E-2,-4.0548703E-1,-2.8258675E-1,-2.6955128E-1,-3.4800984E-2,-2.849812E-1,-2.0375277E-1,-3.4151328E-1,-2.1346409E-2,-4.929912E-1,-4.1157186E-1,-5.3643413E-2,-5.7454073E-1,-4.6270403E-1,-2.5327998E-1,-3.1880954E-1,-3.929111E-2,3.442957E-2,4.6417158E-2,1.617231E-2,1.9690186E-2,5.2449223E-2,6.1103225E-2,5.56463E-2,3.993727E-2,4.0244143E-2,3.472924E-2,4.5633134E-3,1.0345227E-2,-6.5098604E-4,-4.3810993E-3,-1.4792635E-2,-1.1431341E-2,-2.2684269E-1,-1.9145879E-1,-9.452748E-3,-3.019826E-2,-1.2086251E-1,-8.4985625E-3,-1.3995355E-1,8.3665125E-2,-3.39631E-1,-2.6713407E-2,-2.6431585E-2,-1.6209932E-2,-2.6307172E-1,-1.8754391E-2,-3.896664E-1,-4.5983218E-2,-2.854945E-1,9.311133E-2,